{"learner":{"attributes":{"best_iteration":"23","best_score":"0.7306577979774523","scikit_learn":"{\"_estimator_type\": \"classifier\"}"},"feature_names":[],"feature_types":[],"gradient_booster":{"model":{"cats":{"enc":[],"feature_segments":[],"sorted_idx":[]},"gbtree_model_param":{"num_parallel_tree":"1","num_trees":"74"},"iteration_indptr":[0,1,2,3,4,5,6,7,8,9,10,11,12,13,14,15,16,17,18,19,20,21,22,23,24,25,26,27,28,29,30,31,32,33,34,35,36,37,38,39,40,41,42,43,44,45,46,47,48,49,50,51,52,53,54,55,56,57,58,59,60,61,62,63,64,65,66,67,68,69,70,71,72,73,74],"tree_info":[0,0,0,0,0,0,0,0,0,0,0,0,0,0,0,0,0,0,0,0,0,0,0,0,0,0,0,0,0,0,0,0,0,0,0,0,0,0,0,0,0,0,0,0,0,0,0,0,0,0,0,0,0,0,0,0,0,0,0,0,0,0,0,0,0,0,0,0,0,0,0,0,0,0],"trees":[{"base_weights":[-1.3169031E-2,4.1667494E-1,-9.978159E-1,8.1777525E-1,1.2823271E-2,-6.756396E-1,-1.5969372E0,1.1016206E0,6.118395E-1,-7.810757E-2,5.26148E-1,2.5596026E-2,-7.4041355E-1,-4.9291648E-2,-2.5011383E-2,3.895699E-1,1.2093515E0,6.9168663E-1,-3.3473447E-1,-7.6009477E-3,-7.3028255E-1,1.2397573E0,1.308178E-1,-5.199087E-1,-1.1828221E0,1.2114371E-2,2.8380496E-2,5.5148233E-2,1.0220879E0,7.752638E-1,-1.4210927E-1,-2.4654984E-2,7.96376E-3,2.6909286E-1,-1.8339373E-1,-6.119041E-4,-1.1374031E0,5.467817E-3,5.42855E-2,-2.267156E-2,3.2700613E-1,-2.7380234E-1,-9.9663883E-1,-3.8982648E-1,-1.4031991E0,1.2782224E-2,-1.2557989E-2,1.41661605E-2,3.3756994E-2,3.585191E-2,1.7788135E-2,1.4589691E-2,-1.956661E-2,2.2651516E-3,2.2280328E-2,1.7048517E-2,-7.863723E-3,-4.8513107E-2,-1.4953772E-2,1.9731155E-2,-1.2110017E-2,-1.6479025E-2,6.8386625E-3,-3.71341E-2,-3.3454637E-3,-2.562878E-2,1.0417914E-2,-3.4273807E-2,-5.572881E-2],"categories":[],"categories_nodes":[],"categories_segments":[],"categories_sizes":[],"default_left":[0,0,0,0,0,0,0,0,0,0,0,0,0,0,0,0,0,0,0,0,0,0,0,0,0,0,0,0,0,0,0,0,0,0,0,0,0,0,0,0,0,0,0,0,0,0,0,0,0,0,0,0,0,0,0,0,0,0,0,0,0,0,0,0,0,0,0,0,0],"id":0,"left_children":[1,3,5,7,9,11,13,15,17,19,21,-1,23,-1,-1,25,27,29,31,33,35,37,39,41,43,45,-1,-1,47,49,51,-1,-1,53,55,-1,57,-1,-1,-1,59,61,63,65,67,-1,-1,-1,-1,-1,-1,-1,-1,-1,-1,-1,-1,-1,-1,-1,-1,-1,-1,-1,-1,-1,-1,-1,-1],"loss_changes":[3.9296707E2,1.0457661E2,5.3159424E1,1.8096634E1,1.5168271E1,1.8974358E1,1.8260345E0,9.709335E0,1.4646683E1,1.2575194E1,1.3501484E1,0E0,1.6618622E1,0E0,0E0,3.9488187E0,1.1554245E1,1.2429588E1,4.7691627E0,1.217674E1,7.577718E0,9.853222E0,5.8896317E0,1.3796143E1,9.480835E0,2.4303818E0,0E0,0E0,4.534607E0,1.1367958E1,5.706276E0,0E0,0E0,8.765787E0,9.195652E0,0E0,4.1503315E0,0E0,0E0,0E0,6.949189E0,1.1398161E1,8.410366E0,5.2036963E0,2.9359665E0,0E0,0E0,0E0,0E0,0E0,0E0,0E0,0E0,0E0,0E0,0E0,0E0,0E0,0E0,0E0,0E0,0E0,0E0,0E0,0E0,0E0,0E0,0E0,0E0],"parents":[2147483647,0,0,1,1,2,2,3,3,4,4,5,5,6,6,7,7,8,8,9,9,10,10,12,12,15,15,16,16,17,17,18,18,19,19,20,20,21,21,22,22,23,23,24,24,25,25,28,28,29,29,30,30,33,33,34,34,36,36,40,40,41,41,42,42,43,43,44,44],"right_children":[2,4,6,8,10,12,14,16,18,20,22,-1,24,-1,-1,26,28,30,32,34,36,38,40,42,44,46,-1,-1,48,50,52,-1,-1,54,56,-1,58,-1,-1,-1,60,62,64,66,68,-1,-1,-1,-1,-1,-1,-1,-1,-1,-1,-1,-1,-1,-1,-1,-1,-1,-1,-1,-1,-1,-1,-1,-1],"split_conditions":[-2.3497745E-1,-8.7603104E-1,3.4960064E-1,-9.1644E-1,2.408689E-1,-4.346809E-1,2.623379E-1,-9.3786865E-1,-5.1900905E-1,-5.273059E-1,-1.132579E0,2.5596026E-2,-8.3533746E-1,-4.9291648E-2,-2.5011383E-2,1.1858889E-1,-9.368638E-1,-2.3187676E-1,-6.878322E-1,-2.4243821E-1,-6.909954E-1,-1.4521297E0,4.9428898E-1,1.3178183E-1,-4.7957072E-1,6.353608E-2,2.8380496E-2,5.5148233E-2,4.0077735E-2,-4.8058417E-1,-4.3232778E-1,-2.4654984E-2,7.96376E-3,-4.7449204E-1,-4.8041946E-1,-6.119041E-4,-2.8250572E-1,5.467817E-3,5.42855E-2,-2.267156E-2,-7.755725E-1,-4.8819518E-1,-4.2364028E-1,1.4412262E0,-2.3875968E-1,1.2782224E-2,-1.2557989E-2,1.41661605E-2,3.3756994E-2,3.585191E-2,1.7788135E-2,1.4589691E-2,-1.956661E-2,2.2651516E-3,2.2280328E-2,1.7048517E-2,-7.863723E-3,-4.8513107E-2,-1.4953772E-2,1.9731155E-2,-1.2110017E-2,-1.6479025E-2,6.8386625E-3,-3.71341E-2,-3.3454637E-3,-2.562878E-2,1.0417914E-2,-3.4273807E-2,-5.572881E-2],"split_indices":[24,19,24,19,4,0,4,19,23,23,7,0,19,0,0,4,19,10,1,10,1,7,7,24,5,4,0,0,4,6,0,0,0,5,5,0,24,0,0,0,19,23,0,2,10,0,0,0,0,0,0,0,0,0,0,0,0,0,0,0,0,0,0,0,0,0,0,0,0],"split_type":[0,0,0,0,0,0,0,0,0,0,0,0,0,0,0,0,0,0,0,0,0,0,0,0,0,0,0,0,0,0,0,0,0,0,0,0,0,0,0,0,0,0,0,0,0,0,0,0,0,0,0,0,0,0,0,0,0,0,0,0,0,0,0,0,0,0,0,0,0],"sum_hessian":[9.263439E2,6.451718E2,2.811721E2,3.2305005E2,3.2212173E2,1.8433887E2,9.683324E1,1.3379828E2,1.8925177E2,2.742023E2,4.791943E1,6.93513E0,1.7740373E2,9.010486E1,6.728377E0,1.8311611E1,1.1548667E2,1.7487529E2,1.4376481E1,2.4850177E2,2.5700533E1,1.6231339E1,3.1688091E1,1.19996445E2,5.7407288E1,1.1626481E1,6.68513E0,2.4351599E1,9.113507E1,1.5911612E2,1.5759182E1,7.824052E0,6.5524287E0,9.611671E1,1.5238507E2,9.839455E0,1.5861078E1,6.2067537E0,1.0024585E1,5.1327014E0,2.6555391E1,8.0317535E1,3.967891E1,1.318513E1,4.4222157E1,6.0524287E0,5.574052E0,1.5428909E1,7.570616E1,4.633294E1,1.1278317E2,6.9937797E0,8.765403E0,6.920023E1,2.691647E1,1.3737559E1,1.386475E2,8.095675E0,7.765403E0,1.8444313E1,8.111078E0,5.191647E1,2.8401066E1,3.0780806E1,8.898104E0,8.074052E0,5.1110783E0,3.0472157E1,1.375E1],"tree_param":{"num_deleted":"0","num_feature":"25","num_nodes":"69","size_leaf_vector":"1"}},{"base_weights":[-5.910598E-3,4.143421E-1,-1.0090652E0,1.054195E0,1.4362252E-1,-7.740112E-1,-1.6417603E0,9.251559E-1,1.5664526E0,4.3923062E-1,-5.328026E-2,7.8633865E-3,-8.205851E-1,-1.1904416E0,-1.7140847E0,9.7370034E-1,-1.9374257E-3,2.3311976E-2,5.1199462E-2,2.9699376E-1,1.1341053E0,2.4043143E-1,-3.0447185E-1,-5.861493E-1,-1.0333399E0,-1.7619098E-2,-4.9758658E-2,-5.2958492E-2,-3.015427E-2,3.63436E-1,1.0675486E0,6.0802424E-1,1.1177805E-1,4.192307E-1,1.5131363E0,8.377067E-2,6.3201755E-1,-1.7588697E-1,-9.955294E-1,-1.376243E0,-4.3064865E-1,-1.2064304E0,-7.1941036E-1,2.596482E-2,-8.824173E-3,3.6565896E-2,1.8474836E-2,2.4895502E-2,-5.4333704E-3,-9.51773E-3,9.581683E-3,2.4591204E-2,1.6000996E-4,2.4578623E-2,5.0696686E-2,7.4396813E-3,-1.1077635E-2,2.8237207E-2,-1.205035E-3,-1.2708303E-2,4.8755053E-3,-4.725697E-2,-1.8168373E-2,-2.322213E-2,-5.1970232E-2,-5.6572645E-3,-2.6045566E-2,-3.840389E-2,-9.950451E-3,-3.524736E-2,-1.21572E-2],"categories":[],"categories_nodes":[],"categories_segments":[],"categories_sizes":[],"default_left":[0,0,0,0,0,0,0,0,0,0,0,0,0,0,0,0,0,0,0,0,0,0,0,0,0,0,0,0,0,0,0,0,0,0,0,0,0,0,0,0,0,0,0,0,0,0,0,0,0,0,0,0,0,0,0,0,0,0,0,0,0,0,0,0,0,0,0,0,0,0,0],"id":1,"left_children":[1,3,5,7,9,11,13,15,17,19,21,-1,23,25,27,29,-1,-1,-1,31,33,35,37,39,41,-1,-1,-1,-1,43,45,47,49,51,53,55,57,59,61,63,65,67,69,-1,-1,-1,-1,-1,-1,-1,-1,-1,-1,-1,-1,-1,-1,-1,-1,-1,-1,-1,-1,-1,-1,-1,-1,-1,-1,-1,-1],"loss_changes":[3.9083688E2,1.128775E2,3.9197876E1,1.1120972E1,2.685252E1,9.999344E0,5.6533813E-2,7.7216034E0,2.567154E0,1.7738102E1,2.0512096E1,0E0,8.871674E0,2.6322384E0,1.4733887E-1,8.077194E0,0E0,0E0,0E0,8.75926E0,7.5301666E0,7.730415E0,1.3028078E1,1.0834446E1,4.3614197E0,0E0,0E0,0E0,0E0,7.473028E0,7.925247E0,1.0233351E1,8.852869E0,1.9290891E0,7.784729E-1,6.982574E0,7.663251E0,1.0802027E1,4.0674725E0,1.6197014E0,8.257272E0,3.45224E0,4.824665E0,0E0,0E0,0E0,0E0,0E0,0E0,0E0,0E0,0E0,0E0,0E0,0E0,0E0,0E0,0E0,0E0,0E0,0E0,0E0,0E0,0E0,0E0,0E0,0E0,0E0,0E0,0E0,0E0],"parents":[2147483647,0,0,1,1,2,2,3,3,4,4,5,5,6,6,7,7,8,8,9,9,10,10,12,12,13,13,14,14,15,15,19,19,20,20,21,21,22,22,23,23,24,24,29,29,30,30,31,31,32,32,33,33,34,34,35,35,36,36,37,37,38,38,39,39,40,40,41,41,42,42],"right_children":[2,4,6,8,10,12,14,16,18,20,22,-1,24,26,28,30,-1,-1,-1,32,34,36,38,40,42,-1,-1,-1,-1,44,46,48,50,52,54,56,58,60,62,64,66,68,70,-1,-1,-1,-1,-1,-1,-1,-1,-1,-1,-1,-1,-1,-1,-1,-1,-1,-1,-1,-1,-1,-1,-1,-1,-1,-1,-1,-1],"split_conditions":[-1.947929E-1,-9.051579E-1,4.482844E-1,1.3986752E0,-1.13437414E-1,-4.346809E-1,-9.1504955E-1,-2.8250572E-1,-4.8023564E-1,1.5228456E0,-8.476252E-1,7.8633865E-3,9.1597304E-2,-4.789016E-1,-4.1363496E-1,-1.0281998E0,-1.9374257E-3,2.3311976E-2,5.1199462E-2,-4.7978216E-1,-1.143722E-1,-4.229341E-1,-5.3829235E-1,-5.060313E-1,-4.738654E-1,-1.7619098E-2,-4.9758658E-2,-5.2958492E-2,-3.015427E-2,-1.7570697E0,7.228116E-1,4.2360992E0,-1.2661132E0,1.9438608E0,-2.9869184E0,4.2360992E0,-1.0727923E-1,-4.7694737E-1,-4.3135867E-1,-1.4417963E-1,-8.414517E-1,-7.8049175E-2,-4.319308E-1,2.596482E-2,-8.824173E-3,3.6565896E-2,1.8474836E-2,2.4895502E-2,-5.4333704E-3,-9.51773E-3,9.581683E-3,2.4591204E-2,1.6000996E-4,2.4578623E-2,5.0696686E-2,7.4396813E-3,-1.1077635E-2,2.8237207E-2,-1.205035E-3,-1.2708303E-2,4.8755053E-3,-4.725697E-2,-1.8168373E-2,-2.322213E-2,-5.1970232E-2,-5.6572645E-3,-2.6045566E-2,-3.840389E-2,-9.950451E-3,-3.524736E-2,-1.21572E-2],"split_indices":[24,19,24,3,8,0,19,24,6,3,19,0,24,5,5,3,0,0,0,6,8,0,23,23,5,0,0,0,0,3,7,20,7,3,2,20,8,5,0,24,19,8,0,0,0,0,0,0,0,0,0,0,0,0,0,0,0,0,0,0,0,0,0,0,0,0,0,0,0,0,0],"split_type":[0,0,0,0,0,0,0,0,0,0,0,0,0,0,0,0,0,0,0,0,0,0,0,0,0,0,0,0,0,0,0,0,0,0,0,0,0,0,0,0,0,0,0,0,0,0,0,0,0,0,0,0,0,0,0,0,0,0,0,0,0,0,0,0,0,0,0,0,0,0,0],"sum_hessian":[9.24947E2,6.522052E2,2.7274182E2,1.9293494E2,4.592703E2,2.0059845E2,7.214337E1,1.5651068E2,3.642426E1,1.833244E2,2.759459E2,8.337603E0,1.9226083E2,1.2566755E1,5.957662E1,1.4930484E2,7.2058372E0,6.5876904E0,2.9836569E1,1.5347937E2,2.9845034E1,1.27042816E2,1.4890308E2,9.347989E1,9.878095E1,6.5703983E0,5.996357E0,5.4042683E1,5.5339327E0,2.0691702E1,1.2861314E2,5.6230114E1,9.724926E1,1.1162255E1,1.8682777E1,9.178996E1,3.5252853E1,1.26722984E2,2.2180086E1,1.3975803E1,7.950408E1,6.163556E1,3.7145397E1,1.1640258E1,9.051444E0,9.490335E1,3.370979E1,4.395072E1,1.2279391E1,3.13838E1,6.5865456E1,5.0520015E0,6.1102533E0,5.052E0,1.3630777E1,6.786329E1,2.3926674E1,2.3973104E1,1.1279749E1,7.31895E1,5.353349E1,7.5937757E0,1.4586309E1,6.47722E0,7.4985833E0,5.2253616E1,2.7250465E1,5.63133E1,5.3222556E0,1.3914033E1,2.3231363E1],"tree_param":{"num_deleted":"0","num_feature":"25","num_nodes":"71","size_leaf_vector":"1"}},{"base_weights":[1.4758169E-2,3.9905912E-1,-8.860869E-1,7.565199E-1,3.239361E-2,-5.4163384E-1,-1.434455E0,9.074395E-1,3.7915036E-1,5.3371423E-1,-1.2762757E-1,-3.4409958E-1,-9.4660544E-1,-1.4859551E0,-1.5419828E-2,9.9543947E-1,3.7396055E-1,8.7234014E-1,1.275277E-1,7.0246166E-1,-1.8330803E-2,2.9043278E-2,-1.7764468E-1,-4.6517178E-1,1.1622579E-1,-2.6071432E-1,-1.2005248E0,-1.5314198E0,-1.8184453E-2,4.2976603E-1,1.0585641E0,6.6856104E-1,-1.6367398E-2,1.1389059E0,-3.982908E-3,-2.3631425E-1,8.1773436E-1,5.8447796E-1,4.6366867E-2,-3.4906617E-1,1.3269499E-1,-6.465985E-1,7.00783E-2,-2.085229E-2,6.348892E-1,1.4365643E-1,-2.8827986E-2,-7.1374555E-3,-1.328308E0,-1.2043389E0,-4.8897523E-2,2.5872206E-2,-2.0219184E-2,3.2663193E-2,7.7856326E-4,-4.2877573E-4,3.0356104E-2,4.9234472E-2,2.205081E-2,-1.0490237E-3,-4.3493144E-2,3.7024632E-2,1.1462682E-2,7.2597074E-3,2.5634443E-2,-1.3933443E-2,5.331682E-3,-8.901702E-3,1.3299332E-2,-2.3501573E-2,1.0537134E-3,3.616637E-2,-8.84147E-3,3.6449558E-3,3.827452E-2,-8.3625745E-3,1.6499985E-2,-2.5469685E-2,-4.6275154E-2,-1.6265932E-2,-4.814428E-2],"categories":[],"categories_nodes":[],"categories_segments":[],"categories_sizes":[],"default_left":[0,0,0,0,0,0,0,0,0,0,0,0,0,0,0,0,0,0,0,0,0,0,0,0,0,0,0,0,0,0,0,0,0,0,0,0,0,0,0,0,0,0,0,0,0,0,0,0,0,0,0,0,0,0,0,0,0,0,0,0,0,0,0,0,0,0,0,0,0,0,0,0,0,0,0,0,0,0,0,0,0],"id":2,"left_children":[1,3,5,7,9,11,13,15,17,19,21,23,25,27,-1,29,31,33,35,37,-1,-1,39,41,43,45,47,49,-1,51,53,55,-1,57,-1,59,61,63,-1,65,67,69,71,-1,73,75,-1,-1,77,79,-1,-1,-1,-1,-1,-1,-1,-1,-1,-1,-1,-1,-1,-1,-1,-1,-1,-1,-1,-1,-1,-1,-1,-1,-1,-1,-1,-1,-1,-1,-1],"loss_changes":[3.2397675E2,8.589446E1,5.1878006E1,1.843843E1,2.6187037E1,1.3430656E1,4.119461E0,1.0583496E1,1.1797237E1,1.5699211E1,1.3634071E1,6.6880493E0,9.323685E0,2.8947754E0,0E0,6.6115875E0,9.918084E0,8.928719E0,1.6670225E1,5.7863274E0,0E0,0E0,1.268791E1,9.242922E0,1.1075199E1,4.9087534E0,4.5226974E0,8.2055664E-1,0E0,1.11665535E1,5.504471E0,6.492118E0,0E0,3.7854233E0,0E0,1.0427359E1,3.5188828E0,5.471134E0,0E0,9.428852E0,1.1473989E1,6.679468E0,1.0631587E1,0E0,4.9773607E0,2.1160913E0,0E0,0E0,2.1003036E0,5.835472E0,0E0,0E0,0E0,0E0,0E0,0E0,0E0,0E0,0E0,0E0,0E0,0E0,0E0,0E0,0E0,0E0,0E0,0E0,0E0,0E0,0E0,0E0,0E0,0E0,0E0,0E0,0E0,0E0,0E0,0E0,0E0],"parents":[2147483647,0,0,1,1,2,2,3,3,4,4,5,5,6,6,7,7,8,8,9,9,10,10,11,11,12,12,13,13,15,15,16,16,17,17,18,18,19,19,22,22,23,23,24,24,25,25,26,26,27,27,29,29,30,30,31,31,33,33,35,35,36,36,37,37,39,39,40,40,41,41,42,42,44,44,45,45,48,48,49,49],"right_children":[2,4,6,8,10,12,14,16,18,20,22,24,26,28,-1,30,32,34,36,38,-1,-1,40,42,44,46,48,50,-1,52,54,56,-1,58,-1,60,62,64,-1,66,68,70,72,-1,74,76,-1,-1,78,80,-1,-1,-1,-1,-1,-1,-1,-1,-1,-1,-1,-1,-1,-1,-1,-1,-1,-1,-1,-1,-1,-1,-1,-1,-1,-1,-1,-1,-1,-1,-1],"split_conditions":[-2.3497745E-1,-8.7603104E-1,3.0161062E-1,-1.151019E-1,5.0074375E-1,-8.291199E-1,-4.0309626E-1,-7.0205975E-1,5.0074375E-1,-7.0205975E-1,-4.3428013E-1,-4.227864E-1,-4.795056E-1,1.5617701E0,-1.5419828E-2,2.338112E-2,-8.923966E-1,-6.590834E-1,1.826549E-1,1.9438608E0,-1.8330803E-2,2.9043278E-2,-4.2842197E-1,-4.6788126E-1,-6.8800986E-1,-4.3018788E-1,-2.4520333E-1,-1.16997294E-1,-1.8184453E-2,-1.5081912E-3,-7.8049175E-2,-1.371628E-1,-1.6367398E-2,-9.1804594E-1,-3.982908E-3,1.0636237E-1,-1.1220645E-1,-8.2224673E-1,4.6366867E-2,-4.7159404E-1,1.09939046E-1,1.8880389E0,-4.6056074E-1,-2.085229E-2,5.803395E-1,-6.916556E-1,-2.8827986E-2,-7.1374555E-3,-6.5379925E-2,5.010265E-1,-4.8897523E-2,2.5872206E-2,-2.0219184E-2,3.2663193E-2,7.7856326E-4,-4.2877573E-4,3.0356104E-2,4.9234472E-2,2.205081E-2,-1.0490237E-3,-4.3493144E-2,3.7024632E-2,1.1462682E-2,7.2597074E-3,2.5634443E-2,-1.3933443E-2,5.331682E-3,-8.901702E-3,1.3299332E-2,-2.3501573E-2,1.0537134E-3,3.616637E-2,-8.84147E-3,3.6449558E-3,3.827452E-2,-8.3625745E-3,1.6499985E-2,-2.5469685E-2,-4.6275154E-2,-1.6265932E-2,-4.814428E-2],"split_indices":[24,19,24,9,21,19,0,24,21,24,0,0,5,3,0,4,19,1,3,3,0,0,0,5,1,0,10,8,0,4,8,9,0,19,0,4,8,19,0,5,4,7,5,0,3,1,0,0,24,24,0,0,0,0,0,0,0,0,0,0,0,0,0,0,0,0,0,0,0,0,0,0,0,0,0,0,0,0,0,0,0],"split_type":[0,0,0,0,0,0,0,0,0,0,0,0,0,0,0,0,0,0,0,0,0,0,0,0,0,0,0,0,0,0,0,0,0,0,0,0,0,0,0,0,0,0,0,0,0,0,0,0,0,0,0,0,0,0,0,0,0,0,0,0,0,0,0,0,0,0,0,0,0,0,0,0,0,0,0,0,0,0,0,0,0],"sum_hessian":[9.339392E2,6.551289E2,2.788103E2,3.3105182E2,3.2407712E2,1.7257732E2,1.0623297E2,2.3528555E2,9.576626E1,7.800128E1,2.4607584E2,1.17406296E2,5.5171024E1,9.991945E1,6.313527E0,2.0106543E2,3.4220135E1,3.138541E1,6.4380844E1,6.8393105E1,9.608183E0,9.853696E0,2.3622214E2,9.312088E1,2.4285418E1,1.55601845E1,3.961084E1,9.419743E1,5.722017E0,2.1127693E1,1.7993773E2,2.6206001E1,8.014134E0,2.477986E1,6.605551E0,4.249328E1,2.1887568E1,6.1586525E1,6.8065767E0,1.5229616E2,8.392598E1,6.953149E1,2.358939E1,9.263055E0,1.5022362E1,1.0277206E1,5.282978E0,5.069088E0,3.454175E1,2.5097757E1,6.909967E1,1.5400352E1,5.7273417E0,1.7467633E2,5.261395E0,8.990559E0,1.7215443E1,9.569119E0,1.521074E1,3.7398964E1,5.0943174E0,1.0136196E1,1.175137E1,2.8148277E1,3.3438248E1,1.25185165E2,2.711099E1,3.5110054E1,4.881592E1,5.7909527E1,1.1621962E1,5.242097E0,1.8347292E1,9.0882015E0,5.9341607E0,5.0722804E0,5.2049255E0,1.2345695E1,2.2196056E1,1.043992E1,1.4657836E1],"tree_param":{"num_deleted":"0","num_feature":"25","num_nodes":"81","size_leaf_vector":"1"}},{"base_weights":[-7.972215E-3,3.7200168E-1,-8.8054293E-1,9.2408264E-1,1.4933012E-1,-5.8396167E-1,-1.4425035E0,1.0101779E0,1.594645E-1,6.4511156E-1,-2.417574E-2,-3.633502E-1,-1.0186666E0,-1.500764E0,-1.5248195E-2,6.8182373E-1,1.1483285E0,-2.0998152E-1,2.5495976E-2,3.3841223E-1,1.1339767E0,6.415338E-2,-5.5180556E-1,-1.3954806E-1,-7.903468E-1,-2.021473E-1,-1.2917337E0,-4.634456E-2,-2.8874105E-2,1.1920524E0,4.36387E-1,1.1939108E0,2.91849E-3,-2.5482964E-2,8.5107675E-3,5.3321904E-1,-4.836652E-1,1.6107625E0,6.2772495E-1,3.271913E-1,-1.4567736E-1,-6.495395E-2,-8.257517E-1,-2.4166887E-1,4.904522E-1,-1.2618972E-3,-9.588082E-1,-2.6473248E-2,7.721568E-3,-3.136916E-3,-1.4433694E0,1.5128794E-2,4.382769E-2,3.5811555E-2,6.2882956E-3,1.0123737E-2,3.8121145E-2,2.3087867E-2,-3.1983407E-4,1.4277976E-3,-3.0337935E-2,3.0219575E-2,5.3363618E-2,-3.3369192E-3,2.5237096E-2,1.1108071E-2,-9.651867E-3,9.806904E-3,-7.364186E-3,-1.728794E-2,2.1994615E-2,-3.6231704E-2,-2.5667038E-3,-2.0298395E-2,-7.923604E-4,3.3524375E-2,-8.388562E-3,-1.3420714E-2,-3.656977E-2,-4.562962E-2,-2.5374452E-2],"categories":[],"categories_nodes":[],"categories_segments":[],"categories_sizes":[],"default_left":[0,0,0,0,0,0,0,0,0,0,0,0,0,0,0,0,0,0,0,0,0,0,0,0,0,0,0,0,0,0,0,0,0,0,0,0,0,0,0,0,0,0,0,0,0,0,0,0,0,0,0,0,0,0,0,0,0,0,0,0,0,0,0,0,0,0,0,0,0,0,0,0,0,0,0,0,0,0,0,0,0],"id":3,"left_children":[1,3,5,7,9,11,13,15,17,19,21,23,25,27,-1,29,31,33,-1,35,37,39,41,43,45,47,49,-1,-1,51,53,55,-1,-1,-1,57,59,61,63,65,67,69,71,73,75,-1,77,-1,-1,-1,79,-1,-1,-1,-1,-1,-1,-1,-1,-1,-1,-1,-1,-1,-1,-1,-1,-1,-1,-1,-1,-1,-1,-1,-1,-1,-1,-1,-1,-1,-1],"loss_changes":[3.0965027E2,7.9715485E1,4.618022E1,1.2007294E1,4.0062096E1,1.7450504E1,4.320587E0,6.6290283E0,5.3926945E0,1.756398E1,1.6169243E1,1.183087E1,1.348806E1,4.1508484E-1,0E0,5.8612576E0,5.3204346E0,4.6731286E0,0E0,1.23877E1,9.86211E0,1.6423853E1,6.4937506E0,5.4973526E0,5.272154E0,5.5727158E0,8.053535E0,0E0,0E0,2.074173E0,5.963197E0,6.7216034E0,0E0,0E0,0E0,8.026678E0,4.329297E0,2.5515366E-1,3.9592752E0,3.814849E0,7.8697996E0,8.215036E0,8.70887E0,6.7541614E0,6.1466713E0,0E0,3.9312172E0,0E0,0E0,0E0,3.7956238E-1,0E0,0E0,0E0,0E0,0E0,0E0,0E0,0E0,0E0,0E0,0E0,0E0,0E0,0E0,0E0,0E0,0E0,0E0,0E0,0E0,0E0,0E0,0E0,0E0,0E0,0E0,0E0,0E0,0E0,0E0],"parents":[2147483647,0,0,1,1,2,2,3,3,4,4,5,5,6,6,7,7,8,8,9,9,10,10,11,11,12,12,13,13,15,15,16,16,17,17,19,19,20,20,21,21,22,22,23,23,24,24,25,25,26,26,29,29,30,30,31,31,35,35,36,36,37,37,38,38,39,39,40,40,41,41,42,42,43,43,44,44,46,46,50,50],"right_children":[2,4,6,8,10,12,14,16,18,20,22,24,26,28,-1,30,32,34,-1,36,38,40,42,44,46,48,50,-1,-1,52,54,56,-1,-1,-1,58,60,62,64,66,68,70,72,74,76,-1,78,-1,-1,-1,80,-1,-1,-1,-1,-1,-1,-1,-1,-1,-1,-1,-1,-1,-1,-1,-1,-1,-1,-1,-1,-1,-1,-1,-1,-1,-1,-1,-1,-1,-1],"split_conditions":[-2.3497745E-1,-9.051579E-1,3.4960064E-1,-7.435557E-2,5.0074375E-1,-8.3533746E-1,1.5617701E0,-1.288001E0,-2.3534212E-1,6.928931E-1,-5.9636164E-1,1.3178183E-1,-4.795056E-1,-4.2557114E-1,-1.5248195E-2,-1.4612514E-1,-8.443907E-2,-6.851074E-1,2.5495976E-2,-1.07739344E-1,-8.8561475E-1,-2.4243821E-1,-4.781238E-1,1.1557186E0,-3.195975E0,2.8730305E-2,-2.4639921E-1,-4.634456E-2,-2.8874105E-2,-1.0524275E0,-4.17968E0,-9.388E-1,2.91849E-3,-2.5482964E-2,8.5107675E-3,7.628555E-2,-4.773169E-1,-1.5284653E0,2.3169483E-1,-1.6637482E-2,-1.1464455E-1,-4.7922173E-1,-4.6950608E-1,-4.821741E-1,6.536713E-1,-1.2618972E-3,-1.1464455E-1,-2.6473248E-2,7.721568E-3,-3.136916E-3,1.1840448E0,1.5128794E-2,4.382769E-2,3.5811555E-2,6.2882956E-3,1.0123737E-2,3.8121145E-2,2.3087867E-2,-3.1983407E-4,1.4277976E-3,-3.0337935E-2,3.0219575E-2,5.3363618E-2,-3.3369192E-3,2.5237096E-2,1.1108071E-2,-9.651867E-3,9.806904E-3,-7.364186E-3,-1.728794E-2,2.1994615E-2,-3.6231704E-2,-2.5667038E-3,-2.0298395E-2,-7.923604E-4,3.3524375E-2,-8.388562E-3,-1.3420714E-2,-3.656977E-2,-4.562962E-2,-2.5374452E-2],"split_indices":[24,19,24,9,21,19,3,7,10,3,24,24,5,6,0,9,8,1,0,8,7,10,5,3,2,24,10,0,0,3,7,19,0,0,0,3,5,7,7,9,8,5,5,6,7,0,8,0,0,0,3,0,0,0,0,0,0,0,0,0,0,0,0,0,0,0,0,0,0,0,0,0,0,0,0,0,0,0,0,0,0],"split_type":[0,0,0,0,0,0,0,0,0,0,0,0,0,0,0,0,0,0,0,0,0,0,0,0,0,0,0,0,0,0,0,0,0,0,0,0,0,0,0,0,0,0,0,0,0,0,0,0,0,0,0,0,0,0,0,0,0,0,0,0,0,0,0,0,0,0,0,0,0,0,0,0,0,0,0,0,0,0,0,0,0],"sum_hessian":[9.3179456E2,6.4944366E2,2.8235086E2,1.8562216E2,4.6382153E2,1.8626462E2,9.608624E1,1.6643033E2,1.9191826E1,1.19685745E2,3.441358E2,1.24929276E2,6.1335346E1,8.977427E1,6.311968E0,5.1258694E1,1.1517164E2,1.2860799E1,6.331028E0,7.471107E1,4.497468E1,2.9537646E2,4.8759315E1,8.299174E1,4.1937534E1,1.5899502E1,4.5435844E1,8.108275E1,8.691524E0,1.5263568E1,3.5995125E1,1.10162964E2,5.008677E0,5.377415E0,7.4833837E0,6.07809E1,1.3930166E1,2.1936092E1,2.3038588E1,1.3103365E2,1.6434283E2,1.8134027E1,3.0625288E1,7.208254E1,1.0909194E1,8.04518E0,3.3892353E1,6.1267495E0,9.772753E0,5.4122086E0,4.0023636E1,5.202733E0,1.0060835E1,7.2105145E0,2.878461E1,9.616012E0,1.0054695E2,4.2206383E1,1.8574518E1,7.299897E0,6.6302695E0,6.4307933E0,1.55053E1,5.1668844E0,1.7871704E1,1.2342382E2,7.609822E0,2.8082506E1,1.3626031E2,1.1298718E1,6.835308E0,1.9695072E1,1.0930215E1,2.3000427E1,4.908212E1,5.8359866E0,5.0732074E0,1.2474543E1,2.141781E1,3.39067E1,6.116935E0],"tree_param":{"num_deleted":"0","num_feature":"25","num_nodes":"81","size_leaf_vector":"1"}},{"base_weights":[1.4709055E-2,3.8337934E-1,-8.371201E-1,9.598527E-1,1.4729196E-1,-5.4081017E-1,-1.4331568E0,4.5405334E-1,1.0416583E0,1.21227885E-2,4.913968E-1,-3.7984985E-1,-8.637056E-1,-1.5079707E0,-8.330451E-1,7.3273855E-1,-7.4313413E-3,1.1430823E0,6.012076E-1,2.4272002E-1,-1.8931834E-1,2.130073E-1,7.5550276E-1,-1.6181844E-1,-7.845491E-1,6.739631E-5,-9.8934525E-1,-1.5525023E0,-2.5019761E-2,-3.6907427E-2,-5.3056357E-3,3.8949005E-2,4.2466572E-1,5.1370764E-1,1.2174683E0,8.5960734E-1,-8.2392525E-3,3.0891228E-1,-4.2396343E-1,9.025712E-1,-2.7613997E-1,6.512929E-1,-1.3232201E-1,8.690507E-1,-1.00398995E-2,-8.5487366E-2,-2.8257892E-2,-4.0965718E-1,-1.0533544E0,-3.7117934E-1,-1.2144207E0,-1.0649427E0,-4.880605E-2,-4.338144E-4,2.3832751E-2,3.1415295E-2,-1.2381489E-3,2.7440006E-2,4.3094605E-2,1.028835E-2,3.2650925E-2,2.4905369E-2,6.216952E-3,7.807456E-3,-4.2573337E-2,1.1272185E-2,3.824542E-2,1.112108E-3,-1.3613442E-2,-8.362637E-3,3.4000684E-2,3.0298779E-2,-1.0956629E-2,1.3022073E-2,3.25219E-2,-2.1290466E-4,-2.9210072E-2,-2.6982524E-2,1.4689354E-3,-1.3154788E-2,-3.7659254E-2,-3.5231624E-2,4.1365465E-3,-4.0713336E-2,-1.7422488E-2,-4.286381E-2,-1.2551003E-2],"categories":[],"categories_nodes":[],"categories_segments":[],"categories_sizes":[],"default_left":[0,0,0,0,0,0,0,0,0,0,0,0,0,0,0,0,0,0,0,0,0,0,0,0,0,0,0,0,0,0,0,0,0,0,0,0,0,0,0,0,0,0,0,0,0,0,0,0,0,0,0,0,0,0,0,0,0,0,0,0,0,0,0,0,0,0,0,0,0,0,0,0,0,0,0,0,0,0,0,0,0,0,0,0,0,0,0],"id":4,"left_children":[1,3,5,7,9,11,13,15,17,19,21,23,25,27,29,31,-1,33,35,37,39,41,43,45,47,-1,49,51,-1,-1,-1,-1,53,55,57,59,-1,61,63,65,67,69,71,73,-1,75,-1,77,79,81,83,85,-1,-1,-1,-1,-1,-1,-1,-1,-1,-1,-1,-1,-1,-1,-1,-1,-1,-1,-1,-1,-1,-1,-1,-1,-1,-1,-1,-1,-1,-1,-1,-1,-1,-1,-1],"loss_changes":[2.935128E2,8.854664E1,4.888217E1,7.208786E0,2.1534481E1,9.436424E0,2.6858063E0,5.7631884E0,6.3740845E0,1.5589976E1,9.350563E0,1.1157883E1,6.879383E0,9.073639E-1,2.9500427E0,2.866477E0,0E0,5.3046265E0,7.675107E0,7.03181E0,1.714376E1,1.000595E1,8.57415E0,4.8920116E0,3.9300518E0,0E0,6.975151E0,7.17041E-1,0E0,0E0,0E0,0E0,2.5152457E0,4.7775507E0,6.124893E0,2.4988995E0,0E0,7.3145256E0,1.031213E1,1.9693098E0,9.325122E0,1.3415995E1,1.0192806E1,5.042919E0,0E0,5.38509E0,0E0,4.727402E0,2.4169102E0,6.8522925E0,2.5808601E0,2.2750454E0,0E0,0E0,0E0,0E0,0E0,0E0,0E0,0E0,0E0,0E0,0E0,0E0,0E0,0E0,0E0,0E0,0E0,0E0,0E0,0E0,0E0,0E0,0E0,0E0,0E0,0E0,0E0,0E0,0E0,0E0,0E0,0E0,0E0,0E0,0E0],"parents":[2147483647,0,0,1,1,2,2,3,3,4,4,5,5,6,6,7,7,8,8,9,9,10,10,11,11,12,12,13,13,14,14,15,15,17,17,18,18,19,19,20,20,21,21,22,22,23,23,24,24,26,26,27,27,32,32,33,33,34,34,35,35,37,37,38,38,39,39,40,40,41,41,42,42,43,43,45,45,47,47,48,48,49,49,50,50,51,51],"right_children":[2,4,6,8,10,12,14,16,18,20,22,24,26,28,30,32,-1,34,36,38,40,42,44,46,48,-1,50,52,-1,-1,-1,-1,54,56,58,60,-1,62,64,66,68,70,72,74,-1,76,-1,78,80,82,84,86,-1,-1,-1,-1,-1,-1,-1,-1,-1,-1,-1,-1,-1,-1,-1,-1,-1,-1,-1,-1,-1,-1,-1,-1,-1,-1,-1,-1,-1,-1,-1,-1,-1,-1,-1],"split_conditions":[-2.3497745E-1,-9.051579E-1,3.4960064E-1,-1.16651356E-1,6.928931E-1,-8.3533746E-1,-4.3830517E-1,-1.183985E-1,-1.0881631E-1,-8.538388E-1,-4.280753E-1,1.3178183E-1,-2.4624637E-1,-6.2353396E-1,-2.5293556E-1,-9.368638E-1,-7.4313413E-3,-9.3786865E-1,-6.6757625E-1,-2.2521526E-2,-4.3428013E-1,-1.13437414E-1,-7.770912E-1,-8.87544E-2,-1.2582211E0,6.739631E-5,-4.795056E-1,-9.1990775E-1,-2.5019761E-2,-3.6907427E-2,-5.3056357E-3,3.8949005E-2,-6.878322E-1,-2.5056174E0,-4.7615057E-1,-6.9093E-1,-8.2392525E-3,-4.3254218E-1,-1.114486E-1,-4.809302E-1,-2.4243821E-1,-1.1504482E-1,-8.835243E-1,-4.7703612E-1,-1.00398995E-2,-2.0074071E-1,-2.8257892E-2,-1.1329883E-1,-1.1464455E-1,2.8730305E-2,2.3924735E-1,-1.13437414E-1,-4.880605E-2,-4.338144E-4,2.3832751E-2,3.1415295E-2,-1.2381489E-3,2.7440006E-2,4.3094605E-2,1.028835E-2,3.2650925E-2,2.4905369E-2,6.216952E-3,7.807456E-3,-4.2573337E-2,1.1272185E-2,3.824542E-2,1.112108E-3,-1.3613442E-2,-8.362637E-3,3.4000684E-2,3.0298779E-2,-1.0956629E-2,1.3022073E-2,3.25219E-2,-2.1290466E-4,-2.9210072E-2,-2.6982524E-2,1.4689354E-3,-1.3154788E-2,-3.7659254E-2,-3.5231624E-2,4.1365465E-3,-4.0713336E-2,-1.7422488E-2,-4.286381E-2,-1.2551003E-2],"split_indices":[24,19,24,8,3,19,5,8,9,19,0,24,10,1,3,19,0,19,1,9,0,8,19,8,2,0,5,19,0,0,0,0,1,2,5,1,0,0,8,5,10,8,19,5,0,10,0,8,8,24,24,8,0,0,0,0,0,0,0,0,0,0,0,0,0,0,0,0,0,0,0,0,0,0,0,0,0,0,0,0,0,0,0,0,0,0,0],"split_type":[0,0,0,0,0,0,0,0,0,0,0,0,0,0,0,0,0,0,0,0,0,0,0,0,0,0,0,0,0,0,0,0,0,0,0,0,0,0,0,0,0,0,0,0,0,0,0,0,0,0,0,0,0,0,0,0,0,0,0,0,0,0,0,0,0,0,0,0,0,0,0,0,0,0,0,0,0,0,0,0,0,0,0,0,0,0,0],"sum_hessian":[9.327453E2,6.5146124E2,2.8128406E2,1.8826657E2,4.631947E2,1.8926779E2,9.201627E1,2.7292358E1,1.6097421E2,3.3351227E2,1.2968242E2,1.2796468E2,6.1303104E1,8.032321E1,1.1693064E1,1.9605122E1,7.6872363E0,1.2936308E2,3.1611134E1,1.5563852E2,1.7787375E2,6.419779E1,6.548462E1,8.423181E1,4.3732872E1,7.791001E0,5.35121E1,7.398308E1,6.3401294E0,6.6440735E0,5.04899E0,5.6655016E0,1.3939621E1,1.4651135E1,1.1471195E2,2.4512106E1,7.099027E0,1.422061E2,1.3432423E1,1.2324937E1,1.6554881E2,2.8028326E1,3.6169464E1,5.9574142E1,5.9104795E0,7.785204E1,6.379772E0,1.9472027E1,2.4260843E1,1.5108978E1,3.8403126E1,1.19965E1,6.198658E1,6.687725E0,7.251896E0,7.110011E0,7.541124E0,5.051117E1,6.420078E1,8.423469E0,1.6088636E1,2.188162E1,1.2032448E2,8.337788E0,5.094635E0,6.0463223E0,6.2786145E0,5.9995518E1,1.0555331E2,9.641405E0,1.838692E1,5.487841E0,3.0681623E1,2.0859074E1,3.871507E1,7.256782E1,5.284225E0,9.057003E0,1.0415024E1,6.9048924E0,1.7355951E1,5.430364E0,9.678614E0,3.0284224E1,8.118901E0,6.803492E0,5.1930084E0],"tree_param":{"num_deleted":"0","num_feature":"25","num_nodes":"87","size_leaf_vector":"1"}},{"base_weights":[-2.0965468E-2,3.5033184E-1,-8.810069E-1,9.8625934E-1,1.736017E-1,-5.892721E-1,-1.4096086E0,1.3225044E0,7.405504E-1,6.1055076E-1,1.7492093E-2,-4.2846778E-1,-9.205169E-1,-1.466459E0,-1.5279463E-2,1.5880208E0,9.105326E-1,9.610231E-1,1.5414901E-1,7.239952E-1,-4.258033E-4,3.3469763E-1,-1.6125102E-1,-2.6232675E-1,-8.340422E-1,-1.7389111E-1,-1.1618825E0,-4.920095E-2,-1.254572E0,2.6729796E-2,5.0319806E-2,4.3932036E-2,4.8514026E-1,-1.2320315E-4,1.1061105E0,2.137779E-2,-4.6994526E-2,7.994299E-1,-9.33142E-3,1.7568173E-2,-2.9038978E-1,4.549823E-1,-4.9510792E-1,-2.6491585E-1,3.4224513E-1,-8.227571E-1,-1.4547165E-1,-1.0353898E0,3.4517413E-3,-2.0908412E-2,7.726145E-3,-1.2078032E-2,-1.2635008E0,-1.3206013E0,-1.7493255E-2,3.301806E-2,1.211135E-3,1.399925E-2,3.694937E-2,-1.9503336E-2,9.141372E-3,2.8982671E-2,7.7835442E-3,1.8348073E-3,-2.2233788E-2,1.690083E-2,-2.6519524E-2,-2.7817706E-2,-2.3718479E-3,1.926013E-2,-1.0119967E-2,1.3220155E-3,3.748461E-2,-6.8896194E-3,-3.9932724E-2,-2.307938E-3,-2.7479045E-2,-1.6725285E-2,-5.1497713E-2,-4.08618E-2,-1.81992E-2,-1.8716428E-2,-4.2840265E-2],"categories":[],"categories_nodes":[],"categories_segments":[],"categories_sizes":[],"default_left":[0,0,0,0,0,0,0,0,0,0,0,0,0,0,0,0,0,0,0,0,0,0,0,0,0,0,0,0,0,0,0,0,0,0,0,0,0,0,0,0,0,0,0,0,0,0,0,0,0,0,0,0,0,0,0,0,0,0,0,0,0,0,0,0,0,0,0,0,0,0,0,0,0,0,0,0,0,0,0,0,0,0,0],"id":5,"left_children":[1,3,5,7,9,11,13,15,17,19,21,23,25,27,-1,29,31,33,35,37,39,41,43,45,47,49,51,-1,53,-1,-1,-1,55,-1,57,-1,59,61,-1,-1,63,65,67,69,71,73,75,77,-1,-1,-1,-1,79,81,-1,-1,-1,-1,-1,-1,-1,-1,-1,-1,-1,-1,-1,-1,-1,-1,-1,-1,-1,-1,-1,-1,-1,-1,-1,-1,-1,-1,-1],"loss_changes":[2.9839792E2,7.3047615E1,4.242578E1,1.0510391E1,3.484761E1,9.240776E0,4.141739E0,4.684349E0,1.0631367E1,9.399364E0,2.1525301E1,8.1316395E0,1.0273212E1,1.0672913E0,0E0,3.636856E-1,5.0675545E0,8.643459E0,2.8333104E0,9.169346E0,3.8676841E0,1.3885678E1,1.2739559E1,5.7234097E0,7.0624485E0,3.7570577E0,2.7358398E0,0E0,1.0931473E0,0E0,0E0,0E0,4.203746E0,0E0,3.5133667E0,0E0,4.1984267E0,9.191093E0,0E0,0E0,2.5624382E0,1.7908047E1,3.0094337E0,1.3440459E1,1.1089023E1,4.1470537E0,3.8656893E0,8.504803E0,0E0,0E0,0E0,0E0,1.4633827E0,1.9903793E0,0E0,0E0,0E0,0E0,0E0,0E0,0E0,0E0,0E0,0E0,0E0,0E0,0E0,0E0,0E0,0E0,0E0,0E0,0E0,0E0,0E0,0E0,0E0,0E0,0E0,0E0,0E0,0E0,0E0],"parents":[2147483647,0,0,1,1,2,2,3,3,4,4,5,5,6,6,7,7,8,8,9,9,10,10,11,11,12,12,13,13,15,15,16,16,17,17,18,18,19,19,20,20,21,21,22,22,23,23,24,24,25,25,26,26,28,28,32,32,34,34,36,36,37,37,40,40,41,41,42,42,43,43,44,44,45,45,46,46,47,47,52,52,53,53],"right_children":[2,4,6,8,10,12,14,16,18,20,22,24,26,28,-1,30,32,34,36,38,40,42,44,46,48,50,52,-1,54,-1,-1,-1,56,-1,58,-1,60,62,-1,-1,64,66,68,70,72,74,76,78,-1,-1,-1,-1,80,82,-1,-1,-1,-1,-1,-1,-1,-1,-1,-1,-1,-1,-1,-1,-1,-1,-1,-1,-1,-1,-1,-1,-1,-1,-1,-1,-1,-1,-1],"split_conditions":[-2.3497745E-1,-9.14431E-1,3.4960064E-1,5.0074375E-1,5.0074375E-1,-8.3533746E-1,2.623379E-1,-4.7026882E-1,-1.1482019E-1,4.2360992E0,-8.748326E-1,1.618942E-1,-2.4331108E-1,2.861212E-2,-1.5279463E-2,-1.5104051E-1,-4.276645E-1,-1.1605464E-1,-4.8078024E-1,-4.3054923E-1,-2.4247015E-1,-5.274641E-1,-4.240091E-1,-5.064629E-1,-4.6046448E-1,-1.3044553E-1,-4.8564306E-1,-4.920095E-2,-9.685412E-2,2.6729796E-2,5.0319806E-2,4.3932036E-2,-1.3376686E-1,-1.2320315E-4,-9.3786865E-1,2.137779E-2,-4.726093E-1,-1.08903356E-1,-9.33142E-3,1.7568173E-2,-6.8464094E-1,-1.6637482E-2,-1.3098587E-1,-4.3382773E-1,1.8864527E-1,-1.13437414E-1,-8.87544E-2,-4.740641E-1,3.4517413E-3,-2.0908412E-2,7.726145E-3,-1.2078032E-2,-1.00396305E-1,-4.7154894E-1,-1.7493255E-2,3.301806E-2,1.211135E-3,1.399925E-2,3.694937E-2,-1.9503336E-2,9.141372E-3,2.8982671E-2,7.7835442E-3,1.8348073E-3,-2.2233788E-2,1.690083E-2,-2.6519524E-2,-2.7817706E-2,-2.3718479E-3,1.926013E-2,-1.0119967E-2,1.3220155E-3,3.748461E-2,-6.8896194E-3,-3.9932724E-2,-2.307938E-3,-2.7479045E-2,-1.6725285E-2,-5.1497713E-2,-4.08618E-2,-1.81992E-2,-1.8716428E-2,-4.2840265E-2],"split_indices":[24,19,24,21,21,19,4,6,9,20,19,24,10,4,0,9,0,8,6,6,10,23,0,23,23,9,6,0,8,0,0,0,9,0,19,0,6,8,0,0,1,9,9,0,4,8,8,23,0,0,0,0,8,23,0,0,0,0,0,0,0,0,0,0,0,0,0,0,0,0,0,0,0,0,0,0,0,0,0,0,0,0,0],"split_type":[0,0,0,0,0,0,0,0,0,0,0,0,0,0,0,0,0,0,0,0,0,0,0,0,0,0,0,0,0,0,0,0,0,0,0,0,0,0,0,0,0,0,0,0,0,0,0,0,0,0,0,0,0,0,0,0,0,0,0,0,0,0,0,0,0,0,0,0,0,0,0,0,0,0,0,0,0,0,0,0,0,0,0],"sum_hessian":[9.3231415E2,6.515173E2,2.8079684E2,1.4056747E2,5.1094983E2,1.8242218E2,9.837468E1,5.7327362E1,8.324011E1,1.3356139E2,3.7738843E2,1.2455285E2,5.7869328E1,9.183563E1,6.53905E0,3.297653E1,2.4350836E1,5.9907112E1,2.3332998E1,1.12627686E2,2.0933706E1,1.3590042E2,2.4148802E2,8.970083E1,3.4852024E1,1.4658957E1,4.321037E1,4.651754E1,4.531809E1,5.119081E0,2.7857445E1,9.414906E0,1.4935931E1,7.8658E0,5.204131E1,5.637049E0,1.769595E1,1.05279106E2,7.3485737E0,6.4776344E0,1.4456072E1,1.1919473E2,1.670569E1,2.0081473E2,4.0673294E1,1.4286587E1,7.5414246E1,2.8764256E1,6.087767E0,6.452468E0,8.20649E0,5.802279E0,3.740809E1,4.0244873E1,5.0732164E0,5.5527596E0,9.383171E0,9.44465E0,4.259666E1,6.3104677E0,1.1385481E1,7.97047E1,2.5574413E1,8.482575E0,5.9734964E0,1.1087428E2,8.320451E0,7.4736686E0,9.232022E0,1.4165392E1,1.8664934E2,3.148432E1,9.188972E0,7.35434E0,6.932247E0,7.038289E1,5.031355E0,1.805995E1,1.0704307E1,3.146158E1,5.9465103E0,6.409292E0,3.3835583E1],"tree_param":{"num_deleted":"0","num_feature":"25","num_nodes":"83","size_leaf_vector":"1"}},{"base_weights":[5.4876185E-3,3.776462E-1,-8.6555564E-1,7.043439E-1,3.750179E-2,-5.9354717E-1,-1.36717E0,1.0089111E0,5.45907E-1,4.874015E-1,-1.1212312E-1,-6.3262844E-1,1.8019214E-2,-1.4510299E0,-7.197196E-1,4.9199652E-2,7.838244E-1,6.3781554E-1,9.3142115E-2,6.451761E-1,-2.015339E-2,2.416787E-1,-2.8095427E-1,-2.415919E-3,-7.0025265E-1,-1.4947673E0,-2.1555588E-2,-4.456983E-2,-8.606565E-4,-7.835757E-3,9.74723E-1,5.444142E-1,1.0291378E0,5.3305167E-1,-4.2967507E-1,3.5785702E-1,1.051125E0,3.2827967E-1,-2.3006853E-2,-1.0504351E-1,-6.5974456E-1,-2.0304428E-2,3.9291254E-1,-2.9120797E-1,-8.0894053E-1,-2.4689073E-2,-4.5897353E-2,1.9491533E-2,-1.630389E-2,4.139263E-2,2.1596588E-2,3.5727562E-3,1.8248288E-2,4.596929E-2,2.0957105E-2,-6.356579E-4,2.3752792E-2,-2.3534635E-2,7.0661376E-3,1.9329313E-2,-2.9419037E-3,4.5036223E-2,1.0733368E-2,2.2973388E-2,5.3429124E-3,-1.4067066E-2,6.363494E-3,-8.684306E-3,-3.0421313E-2,2.6413217E-2,-2.0842645E-3,-2.3074133E-2,-3.8935017E-4,-3.516657E-2,-2.0273864E-2],"categories":[],"categories_nodes":[],"categories_segments":[],"categories_sizes":[],"default_left":[0,0,0,0,0,0,0,0,0,0,0,0,0,0,0,0,0,0,0,0,0,0,0,0,0,0,0,0,0,0,0,0,0,0,0,0,0,0,0,0,0,0,0,0,0,0,0,0,0,0,0,0,0,0,0,0,0,0,0,0,0,0,0,0,0,0,0,0,0,0,0,0,0,0,0],"id":6,"left_children":[1,3,5,7,9,11,13,15,17,19,21,23,-1,25,27,-1,29,31,33,35,-1,37,39,41,43,45,-1,-1,-1,47,49,51,53,55,57,59,61,63,-1,65,67,-1,69,71,73,-1,-1,-1,-1,-1,-1,-1,-1,-1,-1,-1,-1,-1,-1,-1,-1,-1,-1,-1,-1,-1,-1,-1,-1,-1,-1,-1,-1,-1,-1],"loss_changes":[3.005353E2,7.210196E1,3.6855392E1,1.527655E1,2.1601582E1,8.869064E0,3.9874725E0,1.43736725E1,9.0336685E0,1.5080051E1,1.44333E1,7.455696E0,0E0,1.4107971E0,6.795989E0,0E0,1.2881641E1,5.96183E0,9.099477E0,7.7745705E0,0E0,7.0219274E0,1.0743059E1,5.1635036E0,6.739662E0,3.6264038E-1,0E0,0E0,0E0,6.4414616E0,5.8393097E0,3.9254265E0,4.342552E0,3.172439E0,4.5005975E0,5.771128E0,8.2649975E0,4.541821E0,0E0,1.3160993E1,6.326067E0,0E0,2.8593824E0,4.5940943E0,5.0766907E0,0E0,0E0,0E0,0E0,0E0,0E0,0E0,0E0,0E0,0E0,0E0,0E0,0E0,0E0,0E0,0E0,0E0,0E0,0E0,0E0,0E0,0E0,0E0,0E0,0E0,0E0,0E0,0E0,0E0,0E0],"parents":[2147483647,0,0,1,1,2,2,3,3,4,4,5,5,6,6,7,7,8,8,9,9,10,10,11,11,13,13,14,14,16,16,17,17,18,18,19,19,21,21,22,22,23,23,24,24,25,25,29,29,30,30,31,31,32,32,33,33,34,34,35,35,36,36,37,37,39,39,40,40,42,42,43,43,44,44],"right_children":[2,4,6,8,10,12,14,16,18,20,22,24,-1,26,28,-1,30,32,34,36,-1,38,40,42,44,46,-1,-1,-1,48,50,52,54,56,58,60,62,64,-1,66,68,-1,70,72,74,-1,-1,-1,-1,-1,-1,-1,-1,-1,-1,-1,-1,-1,-1,-1,-1,-1,-1,-1,-1,-1,-1,-1,-1,-1,-1,-1,-1,-1,-1],"split_conditions":[-2.3497745E-1,-8.7603104E-1,3.4960064E-1,5.0074375E-1,5.0074375E-1,-4.5723826E-1,-4.3830517E-1,-9.359508E-1,-7.0205975E-1,-5.786842E-1,-2.4316329E-1,-2.4903664E-1,1.8019214E-2,-6.2353396E-1,-9.00762E-1,4.9199652E-2,-1.8674251E0,1.3747871E0,-9.0424263E-1,1.601078E-1,-2.015339E-2,-4.631978E-1,-7.755725E-1,-2.6638916E-1,5.0074375E-1,-9.3215746E-1,-2.1555588E-2,-4.456983E-2,-8.606565E-4,-2.963935E0,-1.0714803E0,2.338112E-2,2.3021033E-1,-1.829998E0,-4.6980652E-1,-6.8385696E-1,-8.8561475E-1,-6.2755644E-1,-2.3006853E-2,-7.572605E-2,-1.1034427E-1,-2.0304428E-2,-2.5413665E-1,-1.7775761E0,-8.2540447E-1,-2.4689073E-2,-4.5897353E-2,1.9491533E-2,-1.630389E-2,4.139263E-2,2.1596588E-2,3.5727562E-3,1.8248288E-2,4.596929E-2,2.0957105E-2,-6.356579E-4,2.3752792E-2,-2.3534635E-2,7.0661376E-3,1.9329313E-2,-2.9419037E-3,4.5036223E-2,1.0733368E-2,2.2973388E-2,5.3429124E-3,-1.4067066E-2,6.363494E-3,-8.684306E-3,-3.0421313E-2,2.6413217E-2,-2.0842645E-3,-2.3074133E-2,-3.8935017E-4,-3.516657E-2,-2.0273864E-2],"split_indices":[24,19,24,21,21,23,5,19,24,23,10,10,0,1,19,0,7,3,19,4,0,24,19,10,21,19,0,0,0,7,7,4,4,7,5,1,7,3,0,3,8,0,10,7,3,0,0,0,0,0,0,0,0,0,0,0,0,0,0,0,0,0,0,0,0,0,0,0,0,0,0,0,0,0,0],"split_type":[0,0,0,0,0,0,0,0,0,0,0,0,0,0,0,0,0,0,0,0,0,0,0,0,0,0,0,0,0,0,0,0,0,0,0,0,0,0,0,0,0,0,0,0,0,0,0,0,0,0,0,0,0,0,0,0,0,0,0,0,0,0,0,0,0,0,0,0,0,0,0,0,0,0,0],"sum_hessian":[9.2524457E2,6.4874536E2,2.764992E2,3.302175E2,3.185279E2,1.80826E2,9.56732E1,1.1094534E2,2.1927214E2,7.909922E1,2.3942867E2,1.756322E2,5.193801E0,8.346673E1,1.2206474E1,2.7398289E1,8.354706E1,1.8174867E2,3.7523468E1,7.0089165E1,9.010056E0,7.701421E1,1.6241444E2,1.7263401E1,1.5836879E2,7.765302E1,5.8137083E0,5.1754045E0,7.0310693E0,1.631666E1,6.72304E1,1.488643E2,3.2884373E1,2.0470688E1,1.7052778E1,4.2287292E1,2.7801872E1,7.1636795E1,5.377417E0,1.1196094E2,5.045351E1,6.2102094E0,1.1053192E1,3.421199E1,1.2415681E2,5.215677E0,7.243735E1,7.145235E0,9.171424E0,2.4107622E1,4.3122776E1,2.0012344E1,1.2885196E2,1.1476927E1,2.1407444E1,6.6836367E0,1.3787051E1,1.1102127E1,5.950652E0,2.5851194E1,1.6436098E1,1.606437E1,1.1737503E1,1.7089165E1,5.4547634E1,5.2065807E1,5.9895134E1,2.5697302E1,2.4756207E1,5.04551E0,6.0076823E0,1.1806875E1,2.2405113E1,3.100536E1,9.315145E1],"tree_param":{"num_deleted":"0","num_feature":"25","num_nodes":"75","size_leaf_vector":"1"}},{"base_weights":[-1.0499219E-2,3.353124E-1,-8.047541E-1,7.5711155E-1,1.608237E-1,-4.9790218E-1,-1.1437445E0,8.4946555E-1,-9.454172E-2,5.030502E-2,5.1052314E-1,-6.270029E-1,1.1669973E-1,-3.673053E-1,-1.2070434E0,9.409288E-1,2.3938413E-1,-5.187352E-1,1.5666466E-2,-8.7090015E-2,4.4986936E-1,5.763236E-1,-1.1799206E-2,6.5352144E-3,-6.692755E-1,7.237673E-1,-3.0864504E-1,-2.582277E-2,5.6117144E-3,-1.291056E0,-6.3415956E-1,3.7919277E-1,1.0535938E0,5.1350266E-1,-7.1416344E-3,-2.4924805E-2,-3.964239E-3,2.944906E-2,-1.2491141E-1,6.0971946E-1,-2.05051E-1,2.495584E-1,7.4921286E-1,-5.0995576E-1,-9.4554603E-1,5.6580505E-3,3.2787792E-2,3.2258115E-3,-2.1492306E-2,-1.4456686E0,-9.8151463E-1,-9.615173E-1,1.13141585E-4,2.5156932E-2,-4.5736865E-3,4.433303E-2,2.2266746E-2,2.5005704E-2,-1.4757133E-3,-1.0218638E-2,7.7133434E-4,1.0324671E-2,2.7687103E-2,8.631199E-3,-2.0484418E-2,-9.043318E-3,1.8683456E-2,2.4314877E-2,2.1492927E-4,-2.860879E-2,-7.127302E-3,-6.240053E-3,-3.229944E-2,-4.4878956E-2,-2.5410388E-2,-8.334826E-3,-3.4244146E-2,-1.631894E-2,-3.7918385E-2],"categories":[],"categories_nodes":[],"categories_segments":[],"categories_sizes":[],"default_left":[0,0,0,0,0,0,0,0,0,0,0,0,0,0,0,0,0,0,0,0,0,0,0,0,0,0,0,0,0,0,0,0,0,0,0,0,0,0,0,0,0,0,0,0,0,0,0,0,0,0,0,0,0,0,0,0,0,0,0,0,0,0,0,0,0,0,0,0,0,0,0,0,0,0,0,0,0,0,0],"id":7,"left_children":[1,3,5,7,9,11,13,15,17,19,21,23,25,27,29,31,33,35,-1,37,39,41,-1,-1,43,45,47,-1,-1,49,51,53,55,57,-1,-1,-1,-1,59,61,63,65,67,69,71,-1,-1,-1,-1,73,75,77,-1,-1,-1,-1,-1,-1,-1,-1,-1,-1,-1,-1,-1,-1,-1,-1,-1,-1,-1,-1,-1,-1,-1,-1,-1,-1,-1],"loss_changes":[2.570875E2,4.776651E1,2.8802673E1,1.5125771E1,1.7796268E1,1.2102608E1,5.9841766E0,9.249504E0,5.349732E0,1.9444765E1,6.832138E0,4.6569443E0,7.2146835E0,3.4169292E0,4.924423E0,8.888184E0,3.2772825E0,1.2538693E0,0E0,1.0675479E1,9.653175E0,5.574547E0,0E0,0E0,4.629883E0,1.934617E0,2.9261682E0,0E0,0E0,3.4323273E0,3.8354778E0,6.6940956E0,1.4980713E1,2.934102E0,0E0,0E0,0E0,0E0,8.3311405E0,5.645523E0,4.5690765E0,7.9521356E0,2.9661942E0,9.099743E0,3.7366676E0,0E0,0E0,0E0,0E0,5.657501E-1,3.906559E0,6.3827896E-1,0E0,0E0,0E0,0E0,0E0,0E0,0E0,0E0,0E0,0E0,0E0,0E0,0E0,0E0,0E0,0E0,0E0,0E0,0E0,0E0,0E0,0E0,0E0,0E0,0E0,0E0,0E0],"parents":[2147483647,0,0,1,1,2,2,3,3,4,4,5,5,6,6,7,7,8,8,9,9,10,10,11,11,12,12,13,13,14,14,15,15,16,16,17,17,19,19,20,20,21,21,24,24,25,25,26,26,29,29,30,30,31,31,32,32,33,33,38,38,39,39,40,40,41,41,42,42,43,43,44,44,49,49,50,50,51,51],"right_children":[2,4,6,8,10,12,14,16,18,20,22,24,26,28,30,32,34,36,-1,38,40,42,-1,-1,44,46,48,-1,-1,50,52,54,56,58,-1,-1,-1,-1,60,62,64,66,68,70,72,-1,-1,-1,-1,74,76,78,-1,-1,-1,-1,-1,-1,-1,-1,-1,-1,-1,-1,-1,-1,-1,-1,-1,-1,-1,-1,-1,-1,-1,-1,-1,-1,-1],"split_conditions":[-5.086239E-1,5.0074375E-1,-4.7541207E-1,-5.5736756E-1,-4.2234346E-1,-4.2309165E-1,-4.346809E-1,4.2360992E0,-2.40634E-1,-4.7159404E-1,-6.64105E-2,-2.5413665E-1,-4.1721138E-1,-1.0968848E-1,-4.414528E-1,-1.8674251E0,-4.698517E-1,-4.7603157E-1,1.5666466E-2,-4.3505493E-1,-2.3494284E-1,-4.782648E-1,-1.1799206E-2,6.5352144E-3,4.2360992E0,-4.89601E-1,-4.947512E-1,-2.582277E-2,5.6117144E-3,-1.2237791E-1,9.8008856E-2,-1.221909E-1,-1.0714803E0,-4.7636396E-1,-7.1416344E-3,-2.4924805E-2,-3.964239E-3,2.944906E-2,-3.8074246E-1,3.784101E-1,-4.3271476E-1,-1.366013E-1,-9.981359E-2,-5.379695E-1,-2.4302702E-1,5.6580505E-3,3.2787792E-2,3.2258115E-3,-2.1492306E-2,-4.39216E-1,-1.1448824E-1,-3.2743853E-1,1.13141585E-4,2.5156932E-2,-4.5736865E-3,4.433303E-2,2.2266746E-2,2.5005704E-2,-1.4757133E-3,-1.0218638E-2,7.7133434E-4,1.0324671E-2,2.7687103E-2,8.631199E-3,-2.0484418E-2,-9.043318E-3,1.8683456E-2,2.4314877E-2,2.1492927E-4,-2.860879E-2,-7.127302E-3,-6.240053E-3,-3.229944E-2,-4.4878956E-2,-2.5410388E-2,-8.334826E-3,-3.4244146E-2,-1.631894E-2,-3.7918385E-2],"split_indices":[23,21,23,23,0,0,0,20,10,5,9,10,0,4,5,7,6,6,0,0,10,5,0,0,20,23,23,0,0,9,4,9,7,5,0,0,0,0,7,7,0,9,9,3,10,0,0,0,0,6,9,5,0,0,0,0,0,0,0,0,0,0,0,0,0,0,0,0,0,0,0,0,0,0,0,0,0,0,0],"split_type":[0,0,0,0,0,0,0,0,0,0,0,0,0,0,0,0,0,0,0,0,0,0,0,0,0,0,0,0,0,0,0,0,0,0,0,0,0,0,0,0,0,0,0,0,0,0,0,0,0,0,0,0,0,0,0,0,0,0,0,0,0,0,0,0,0,0,0,0,0,0,0,0,0,0,0,0,0,0,0],"sum_hessian":[9.338589E2,6.509102E2,2.829487E2,1.8932777E2,4.6158243E2,1.4996507E2,1.3298361E2,1.7091373E2,1.841405E1,3.5182254E2,1.09759865E2,1.2405015E2,2.5914925E1,1.0656085E1,1.2232753E2,1.4801688E2,2.2896856E1,1.110045E1,7.313599E0,2.6219528E2,8.962726E1,1.027523E2,7.0075674E0,5.600571E0,1.1844958E2,1.0484528E1,1.5430397E1,5.4407797E0,5.2153053E0,1.0543716E2,1.6890375E1,2.5605204E1,1.2241167E2,1.4630662E1,8.266193E0,5.363117E0,5.7373323E0,8.018438E0,2.5417685E2,7.2221466E1,1.7405788E1,3.6599712E1,6.615259E1,7.716047E1,4.1289104E1,5.0072937E0,5.4772334E0,7.879504E0,7.5508933E0,6.765219E1,3.7784966E1,1.0930726E1,5.9596486E0,1.35275345E1,1.207767E1,5.0097404E1,7.231426E1,9.132906E0,5.4977565E0,1.04262596E2,1.4991426E2,4.0390564E1,3.1830906E1,8.661225E0,8.744563E0,1.4749265E1,2.1850449E1,6.0896374E1,5.2562113E0,2.8260117E1,4.8900356E1,6.7371345E0,3.455197E1,6.087205E1,6.7801394E0,7.6209083E0,3.0164059E1,5.9059305E0,5.024796E0],"tree_param":{"num_deleted":"0","num_feature":"25","num_nodes":"79","size_leaf_vector":"1"}},{"base_weights":[1.8415185E-2,3.561128E-1,-8.0242765E-1,6.5627E-1,5.1402595E-2,-5.0829524E-1,-1.3293792E0,7.575451E-1,1.9419256E-1,4.8339233E-1,-8.468214E-2,-3.4206358E-1,-8.2243645E-1,-1.4013312E0,-6.845762E-1,1.12137E0,6.362514E-1,7.8486544E-1,-6.780324E-2,6.079938E-1,-1.7839378E-2,1.7851081E-1,-2.3775631E-1,-4.3368137E-1,3.3017135E-1,-1.8971315E-1,-1.0854398E0,-1.4595063E0,-1.5129904E-2,-3.0689044E-2,-7.030682E-3,1.2708453E0,7.516954E-1,4.9506578E-1,1.1116654E0,5.5252933E-3,9.97203E-1,-3.0981438E-2,8.996046E-2,7.0599765E-1,-1.8096751E-3,2.5876242E-1,-2.8650196E-2,-3.601944E-1,3.5811448E-1,-9.157277E-1,-2.1638225E-1,3.3526395E-2,-6.196985E-3,-4.883658E-1,1.2551238E-2,-1.3917347E-2,-1.1869721E0,-1.4964204E0,-2.2660162E-2,2.1148046E-2,4.128826E-2,-8.664887E-3,3.345538E-2,-3.2680463E-3,1.7477315E-2,4.0093336E-2,2.0302061E-2,4.1068014E-2,1.0304517E-2,-6.9257044E-3,1.9520178E-2,1.7099552E-2,4.3290876E-2,1.38838515E-2,-2.1209014E-3,-6.6617266E-3,-2.861146E-2,2.3886834E-3,3.6613952E-2,-1.2841821E-2,-3.8603276E-2,6.589227E-4,-2.2918472E-2,3.3247902E-3,-3.0625151E-2,-2.0939814E-2,-3.975332E-2,-4.608538E-2,-2.7817287E-2],"categories":[],"categories_nodes":[],"categories_segments":[],"categories_sizes":[],"default_left":[0,0,0,0,0,0,0,0,0,0,0,0,0,0,0,0,0,0,0,0,0,0,0,0,0,0,0,0,0,0,0,0,0,0,0,0,0,0,0,0,0,0,0,0,0,0,0,0,0,0,0,0,0,0,0,0,0,0,0,0,0,0,0,0,0,0,0,0,0,0,0,0,0,0,0,0,0,0,0,0,0,0,0,0,0],"id":8,"left_children":[1,3,5,7,9,11,13,15,17,19,21,23,25,27,29,31,33,35,37,39,-1,41,43,45,47,49,51,53,-1,-1,-1,55,57,59,61,-1,63,-1,65,67,-1,69,-1,71,73,75,77,-1,-1,79,-1,-1,81,83,-1,-1,-1,-1,-1,-1,-1,-1,-1,-1,-1,-1,-1,-1,-1,-1,-1,-1,-1,-1,-1,-1,-1,-1,-1,-1,-1,-1,-1,-1,-1],"loss_changes":[2.5945355E2,6.056392E1,4.1422012E1,1.5383636E1,1.9505083E1,8.835499E0,3.3314972E0,1.11740265E1,9.649981E0,1.1038748E1,1.019849E1,7.3931866E0,9.695282E0,3.5631866E0,1.4368606E0,2.5353012E0,1.3218674E1,2.13552E0,6.8000884E0,4.81126E0,0E0,8.635258E0,1.1799614E1,1.0583773E1,6.464971E0,3.6652448E0,1.950283E0,7.310486E-1,0E0,0E0,0E0,1.5631104E0,8.681004E0,8.672359E0,3.4455147E0,0E0,2.7044563E0,0E0,7.057927E0,5.2761364E0,0E0,5.967048E0,0E0,1.0602308E1,6.4079638E0,5.0438175E0,9.637354E0,0E0,0E0,4.455905E0,0E0,0E0,1.2730293E0,2.9174805E-2,0E0,0E0,0E0,0E0,0E0,0E0,0E0,0E0,0E0,0E0,0E0,0E0,0E0,0E0,0E0,0E0,0E0,0E0,0E0,0E0,0E0,0E0,0E0,0E0,0E0,0E0,0E0,0E0,0E0,0E0,0E0],"parents":[2147483647,0,0,1,1,2,2,3,3,4,4,5,5,6,6,7,7,8,8,9,9,10,10,11,11,12,12,13,13,14,14,15,15,16,16,17,17,18,18,19,19,21,21,22,22,23,23,24,24,25,25,26,26,27,27,31,31,32,32,33,33,34,34,36,36,38,38,39,39,41,41,43,43,44,44,45,45,46,46,49,49,52,52,53,53],"right_children":[2,4,6,8,10,12,14,16,18,20,22,24,26,28,30,32,34,36,38,40,-1,42,44,46,48,50,52,54,-1,-1,-1,56,58,60,62,-1,64,-1,66,68,-1,70,-1,72,74,76,78,-1,-1,80,-1,-1,82,84,-1,-1,-1,-1,-1,-1,-1,-1,-1,-1,-1,-1,-1,-1,-1,-1,-1,-1,-1,-1,-1,-1,-1,-1,-1,-1,-1,-1,-1,-1,-1],"split_conditions":[-1.947929E-1,-8.748326E-1,3.4960064E-1,-7.0205975E-1,5.0074375E-1,-8.3533746E-1,-4.1363496E-1,-4.8173645E-1,-9.224791E-1,-5.9636164E-1,-2.4262325E-1,-4.652529E-1,-4.795056E-1,-6.2353396E-1,-5.6159097E-1,-6.834145E-1,1.3986752E0,-1.371628E-1,-1.1680691E-1,-4.700367E-1,-1.7839378E-2,-4.1566956E-1,-4.6950608E-1,-4.821741E-1,-4.8086265E-1,1.8760508E0,-1.1570359E-1,-4.0125662E-1,-1.5129904E-2,-3.0689044E-2,-7.030682E-3,-6.974364E-1,-4.8051345E-1,-8.4507287E-1,-8.966279E-1,5.5252933E-3,-2.8250572E-1,-3.0981438E-2,-4.6822858E-1,1.9438608E0,-1.8096751E-3,-6.742677E-1,-2.8650196E-2,1.79754E0,2.7357063E0,-2.4175712E-1,1.2640673E-1,3.3526395E-2,-6.196985E-3,-2.415837E-1,1.2551238E-2,-1.3917347E-2,-2.4351582E-1,-8.341656E-2,-2.2660162E-2,2.1148046E-2,4.128826E-2,-8.664887E-3,3.345538E-2,-3.2680463E-3,1.7477315E-2,4.0093336E-2,2.0302061E-2,4.1068014E-2,1.0304517E-2,-6.9257044E-3,1.9520178E-2,1.7099552E-2,4.3290876E-2,1.38838515E-2,-2.1209014E-3,-6.6617266E-3,-2.861146E-2,2.3886834E-3,3.6613952E-2,-1.2841821E-2,-3.8603276E-2,6.589227E-4,-2.2918472E-2,3.3247902E-3,-3.0625151E-2,-2.0939814E-2,-3.975332E-2,-4.608538E-2,-2.7817287E-2],"split_indices":[24,19,24,24,21,19,5,6,19,24,10,23,5,1,3,1,3,9,8,5,0,24,5,6,6,2,8,6,0,0,0,1,5,3,19,0,24,0,6,3,0,1,0,2,2,10,24,0,0,10,0,0,10,8,0,0,0,0,0,0,0,0,0,0,0,0,0,0,0,0,0,0,0,0,0,0,0,0,0,0,0,0,0,0,0],"split_type":[0,0,0,0,0,0,0,0,0,0,0,0,0,0,0,0,0,0,0,0,0,0,0,0,0,0,0,0,0,0,0,0,0,0,0,0,0,0,0,0,0,0,0,0,0,0,0,0,0,0,0,0,0,0,0,0,0,0,0,0,0,0,0,0,0,0,0,0,0,0,0,0,0,0,0,0,0,0,0,0,0,0,0,0,0],"sum_hessian":[9.34121E2,6.623258E2,2.7179517E2,3.329091E2,3.2941672E2,1.758141E2,9.598107E1,2.7235934E2,6.054974E1,7.8477875E1,2.5093884E2,1.1654834E2,5.9265762E1,8.515093E1,1.083014E1,6.58301E1,2.0652925E2,1.810892E1,4.2440823E1,7.0821045E1,7.656832E0,9.197656E1,1.5896228E2,1.0301255E2,1.3535789E1,1.8018679E1,4.1247086E1,7.927121E1,5.8797193E0,5.3298683E0,5.5002713E0,4.4947598E1,2.0882505E1,1.6097542E2,4.555383E1,5.3401923E0,1.2768727E1,5.2737164E0,3.7167103E1,6.184514E1,8.975907E0,8.6698364E1,5.2781982E0,1.3233395E2,2.6628326E1,3.0866161E1,7.214639E1,5.1236997E0,8.412088E0,1.2326197E1,5.692483E0,6.71224E0,3.4534843E1,7.4118645E1,5.152568E0,8.414803E0,3.6532795E1,5.3882194E0,1.5494287E1,2.0195982E1,1.4077943E2,2.8514402E1,1.7039427E1,7.345016E0,5.423711E0,2.390153E1,1.3265574E1,5.3821835E1,8.023304E0,5.3478302E1,3.3220066E1,1.0860071E2,2.3733248E1,2.1041407E1,5.58692E0,1.4384215E1,1.6481945E1,5.080787E1,2.1338522E1,6.0839643E0,6.242232E0,9.099942E0,2.5434902E1,6.7527E1,6.591647E0],"tree_param":{"num_deleted":"0","num_feature":"25","num_nodes":"85","size_leaf_vector":"1"}},{"base_weights":[-1.0144089E-2,3.1174356E-1,-8.138347E-1,7.579763E-1,1.0065647E-1,-6.026477E-1,-4.1960232E-2,8.3332705E-1,2.4735207E-2,1.8304119E-1,-3.9061502E-1,-4.539466E-1,-8.699103E-1,-4.699804E-3,8.748309E-1,3.7271276E-1,-1.7400227E-2,2.1078889E-1,-3.237284E-2,1.1019498E-2,-5.2200115E-1,-2.0731026E-1,-7.629821E-1,-4.855939E-1,-1.0459254E0,1.1922795E0,7.633774E-1,-1.1261154E-2,2.551358E-2,3.0718657E-1,-1.0463084E-1,-6.2971824E-1,1.0298239E-2,-3.6571237E-1,3.0709594E-1,-9.290684E-1,-1.6270366E-1,-1.159471E-1,-3.2329377E-2,-1.1491358E0,-4.5409803E-3,1.880094E-2,4.584498E-2,4.1180912E-2,2.0415653E-2,1.8877823E-2,5.566415E-3,3.6482986E-3,-1.4097373E-2,3.1990174E-3,-2.2457609E-2,-0E0,-1.9338518E-2,2.3089392E-2,-2.0008573E-2,-3.0840857E-2,-4.579006E-3,-1.6924148E-2,1.10767465E-2,9.868756E-3,-1.9397207E-2,-4.1954063E-2,-2.5995499E-2],"categories":[],"categories_nodes":[],"categories_segments":[],"categories_sizes":[],"default_left":[0,0,0,0,0,0,0,0,0,0,0,0,0,0,0,0,0,0,0,0,0,0,0,0,0,0,0,0,0,0,0,0,0,0,0,0,0,0,0,0,0,0,0,0,0,0,0,0,0,0,0,0,0,0,0,0,0,0,0,0,0,0,0],"id":9,"left_children":[1,3,5,7,9,11,-1,13,15,17,19,21,23,-1,25,27,-1,29,-1,-1,31,33,35,37,39,41,43,-1,-1,45,47,49,-1,51,53,55,57,59,-1,61,-1,-1,-1,-1,-1,-1,-1,-1,-1,-1,-1,-1,-1,-1,-1,-1,-1,-1,-1,-1,-1,-1,-1],"loss_changes":[2.3886385E2,6.191883E1,3.1573578E1,1.1570496E1,1.8212317E1,7.2582855E0,0E0,8.077133E0,4.5828643E0,1.362883E1,6.6390333E0,9.516214E0,3.9862175E0,0E0,5.4057617E0,5.3515415E0,0E0,1.1538794E1,0E0,0E0,5.4243746E0,6.0543594E0,5.357586E0,4.9261785E0,3.9499893E0,7.529648E0,5.889595E0,0E0,0E0,1.1156786E1,7.441394E0,4.509554E0,0E0,5.8034163E0,8.4292145E0,3.0900307E0,3.1222072E0,3.9672463E0,0E0,1.4548111E0,0E0,0E0,0E0,0E0,0E0,0E0,0E0,0E0,0E0,0E0,0E0,0E0,0E0,0E0,0E0,0E0,0E0,0E0,0E0,0E0,0E0,0E0,0E0],"parents":[2147483647,0,0,1,1,2,2,3,3,4,4,5,5,7,7,8,8,9,9,10,10,11,11,12,12,14,14,15,15,17,17,20,20,21,21,22,22,23,23,24,24,25,25,26,26,29,29,30,30,31,31,33,33,34,34,35,35,36,36,37,37,39,39],"right_children":[2,4,6,8,10,12,-1,14,16,18,20,22,24,-1,26,28,-1,30,-1,-1,32,34,36,38,40,42,44,-1,-1,46,48,50,-1,52,54,56,58,60,-1,62,-1,-1,-1,-1,-1,-1,-1,-1,-1,-1,-1,-1,-1,-1,-1,-1,-1,-1,-1,-1,-1,-1,-1],"split_conditions":[-1.947929E-1,-8.9902925E-1,4.482844E-1,-7.435557E-2,-5.2136767E-1,-8.390898E-1,-4.1960232E-2,-1.2423667E-1,-4.2520922E-1,4.6347517E-1,-8.8875514E-1,1.3178183E-1,-1.1361379E-1,-4.699804E-3,-9.3314034E-1,-1.1394397E-1,-1.7400227E-2,-1.0713889E-1,-3.237284E-2,1.1019498E-2,1.5946314E0,5.8555204E-2,-6.7495126E-1,-2.3875968E-1,-9.3920276E-2,-9.3714994E-1,-4.852309E-1,-1.1261154E-2,2.551358E-2,-8.7603104E-1,-2.410083E-1,-1.9335063E-1,1.0298239E-2,-2.4197355E-1,-1.0703271E-1,-1.9865686E-1,-4.2325747E-1,-1.424676E-1,-3.2329377E-2,-7.876075E-1,-4.5409803E-3,1.880094E-2,4.584498E-2,4.1180912E-2,2.0415653E-2,1.8877823E-2,5.566415E-3,3.6482986E-3,-1.4097373E-2,3.1990174E-3,-2.2457609E-2,-0E0,-1.9338518E-2,2.3089392E-2,-2.0008573E-2,-3.0840857E-2,-4.579006E-3,-1.6924148E-2,1.10767465E-2,9.868756E-3,-1.9397207E-2,-4.1954063E-2,-2.5995499E-2],"split_indices":[24,19,24,9,24,19,0,8,0,9,19,24,8,0,19,8,0,8,0,0,3,24,1,10,8,19,6,0,0,19,10,9,0,10,8,10,0,3,0,19,0,0,0,0,0,0,0,0,0,0,0,0,0,0,0,0,0,0,0,0,0,0,0],"split_type":[0,0,0,0,0,0,0,0,0,0,0,0,0,0,0,0,0,0,0,0,0,0,0,0,0,0,0,0,0,0,0,0,0,0,0,0,0,0,0,0,0,0,0,0,0,0,0,0,0,0,0,0,0,0,0,0,0,0,0,0,0,0,0],"sum_hessian":[9.2115564E2,6.5807605E2,2.630796E2,2.1034583E2,4.4773022E2,1.949016E2,6.817799E1,1.9049675E2,1.9849083E1,3.8414178E2,6.358843E1,1.27201256E2,6.770034E1,7.456383E0,1.8304036E2,1.2947786E1,6.9012957E0,3.767708E2,7.370982E0,9.016694E0,5.4571735E1,7.185185E1,5.5349407E1,2.2625702E1,4.5074642E1,4.481129E1,1.3822906E2,5.048065E0,7.899721E0,2.8883963E2,8.79312E1,4.8875134E1,5.696602E0,5.53051E1,1.654675E1,4.279459E1,1.2554818E1,1.4769271E1,7.85643E0,4.00567E1,5.017942E0,1.7875395E1,2.6935896E1,1.4538546E1,1.2369053E2,7.781293E1,2.1102669E2,5.4542854E1,3.338834E1,6.6906233E0,4.218451E1,2.421614E1,3.108896E1,1.1430983E1,5.115767E0,3.7555176E1,5.239415E0,7.227687E0,5.3271313E0,8.137748E0,6.6315236E0,1.8995966E1,2.1060736E1],"tree_param":{"num_deleted":"0","num_feature":"25","num_nodes":"63","size_leaf_vector":"1"}},{"base_weights":[1.0692285E-2,3.2624686E-1,-7.5970906E-1,6.910724E-1,1.7365105E-1,-4.9671054E-1,-1.2465245E0,7.866484E-1,4.176872E-2,9.316574E-2,5.769765E-1,1.2371835E-2,-5.3697115E-1,-1.2946103E0,-1.3876672E-2,9.6736974E-1,5.8740056E-1,2.1919448E-2,-1.5559547E-1,3.3885345E-2,6.57893E-2,6.926597E-1,1.13397256E-1,-2.791848E-1,-6.94378E-1,-4.1034684E-2,-8.067673E-1,1.0698372E0,2.6358545E-3,8.449727E-1,6.25245E-2,1.1464973E-2,-5.873746E-1,1.670887E-2,6.313534E-1,-9.908681E-3,8.0556995E-1,2.4907012E-2,-2.9636973E-1,5.391492E-2,-7.4393123E-1,-1.2773108E0,-5.794611E-1,-4.0087823E-2,2.3105578E-3,3.4672674E-2,1.0496875E-2,-9.110317E-3,2.9781833E-2,3.0704698E-2,-1.3007795E-2,-2.3080723E-3,-3.0825207E-2,2.7207516E-3,-1.03775505E-2,-0E0,2.7430419E-2,3.894689E-3,2.6734868E-2,-3.0595707E-2,1.3236225E-2,9.317061E-3,-8.230993E-3,-2.7805371E-2,-0E0,-1.7458033E-2,-4.851478E-2,-2.2326404E-2,-7.7934656E-3],"categories":[],"categories_nodes":[],"categories_segments":[],"categories_sizes":[],"default_left":[0,0,0,0,0,0,0,0,0,0,0,0,0,0,0,0,0,0,0,0,0,0,0,0,0,0,0,0,0,0,0,0,0,0,0,0,0,0,0,0,0,0,0,0,0,0,0,0,0,0,0,0,0,0,0,0,0,0,0,0,0,0,0,0,0,0,0,0,0],"id":10,"left_children":[1,3,5,7,9,11,13,15,17,19,21,-1,23,25,-1,27,29,-1,31,-1,33,35,37,39,41,-1,43,45,-1,47,49,-1,51,53,55,-1,57,-1,59,61,63,65,67,-1,-1,-1,-1,-1,-1,-1,-1,-1,-1,-1,-1,-1,-1,-1,-1,-1,-1,-1,-1,-1,-1,-1,-1,-1,-1],"loss_changes":[2.2291829E2,3.601925E1,3.331601E1,1.1760727E1,1.4822549E1,6.630497E0,2.7181244E0,5.276367E0,3.6716187E0,1.073357E1,3.9262981E0,0E0,6.521446E0,1.7727203E0,0E0,7.5017395E0,1.0950684E1,0E0,5.0569897E0,0E0,1.0372757E1,7.3128204E0,5.170261E0,1.0258942E1,5.996044E0,0E0,6.7424316E0,4.173851E0,0E0,9.677853E0,1.3957439E1,0E0,2.5046368E0,9.329511E0,5.2878313E0,0E0,2.9606552E0,0E0,6.484025E0,3.3746333E0,3.8416119E0,2.630045E0,4.356148E0,0E0,0E0,0E0,0E0,0E0,0E0,0E0,0E0,0E0,0E0,0E0,0E0,0E0,0E0,0E0,0E0,0E0,0E0,0E0,0E0,0E0,0E0,0E0,0E0,0E0,0E0],"parents":[2147483647,0,0,1,1,2,2,3,3,4,4,5,5,6,6,7,7,8,8,9,9,10,10,12,12,13,13,15,15,16,16,18,18,20,20,21,21,22,22,23,23,24,24,26,26,27,27,29,29,30,30,32,32,33,33,34,34,36,36,38,38,39,39,40,40,41,41,42,42],"right_children":[2,4,6,8,10,12,14,16,18,20,22,-1,24,26,-1,28,30,-1,32,-1,34,36,38,40,42,-1,44,46,-1,48,50,-1,52,54,56,-1,58,-1,60,62,64,66,68,-1,-1,-1,-1,-1,-1,-1,-1,-1,-1,-1,-1,-1,-1,-1,-1,-1,-1,-1,-1,-1,-1,-1,-1,-1,-1],"split_conditions":[-1.947929E-1,5.0074375E-1,3.564311E-1,-5.786842E-1,-4.1721138E-1,-4.346809E-1,-3.968394E-1,-1.13437414E-1,-2.9869184E0,-4.3505493E-1,-1.151019E-1,1.2371835E-2,-2.4201229E-1,-4.414528E-1,-1.3876672E-2,4.2360992E0,-2.8740156E-1,2.1919448E-2,-1.1238957E-1,3.3885345E-2,1.8403287E0,-1.1763044E-1,-2.4814667E-1,9.773133E-2,-5.0104076E-1,-4.1034684E-2,9.136774E-2,-4.518071E-1,2.6358545E-3,-1.12864465E-1,-4.32361E-1,1.1464973E-2,-2.630244E-1,-5.3829235E-1,-4.7547737E-1,-9.908681E-3,-4.1655455E0,2.4907012E-2,-2.4331108E-1,-2.4395934E-1,-2.426528E-1,-1.1106557E-1,-4.738654E-1,-4.0087823E-2,2.3105578E-3,3.4672674E-2,1.0496875E-2,-9.110317E-3,2.9781833E-2,3.0704698E-2,-1.3007795E-2,-2.3080723E-3,-3.0825207E-2,2.7207516E-3,-1.03775505E-2,-0E0,2.7430419E-2,3.894689E-3,2.6734868E-2,-3.0595707E-2,1.3236225E-2,9.317061E-3,-8.230993E-3,-2.7805371E-2,-0E0,-1.7458033E-2,-4.851478E-2,-2.2326404E-2,-7.7934656E-3],"split_indices":[24,21,24,23,0,0,0,8,2,0,9,0,10,5,0,20,2,0,8,0,3,8,10,24,23,0,4,6,0,8,0,0,3,23,5,0,2,0,10,10,10,8,5,0,0,0,0,0,0,0,0,0,0,0,0,0,0,0,0,0,0,0,0,0,0,0,0,0,0],"split_type":[0,0,0,0,0,0,0,0,0,0,0,0,0,0,0,0,0,0,0,0,0,0,0,0,0,0,0,0,0,0,0,0,0,0,0,0,0,0,0,0,0,0,0,0,0,0,0,0,0,0,0,0,0,0,0,0,0,0,0,0,0,0,0,0,0,0,0,0,0],"sum_hessian":[9.1512683E2,6.4971246E2,2.6541437E2,1.903766E2,4.5933588E2,1.737649E2,9.164948E1,1.6563062E2,2.4745983E1,3.8415503E2,7.518085E1,6.8716927E0,1.668932E2,8.561901E1,6.0304723E0,8.4568504E1,8.106211E1,5.021967E0,1.9724016E1,8.756668E0,3.7539835E2,5.959854E1,1.5582302E1,6.456446E1,1.02328735E2,7.269986E1,1.2919153E1,7.544827E1,9.120236E0,5.3840576E1,2.7221537E1,8.732006E0,1.099201E1,3.4653217E2,2.886618E1,5.6449857E0,5.3953556E1,5.383124E0,1.0199178E1,3.7998474E1,2.656599E1,1.504179E1,8.728694E1,7.8295135E0,5.0896397E0,6.673929E1,8.708983E0,5.9389577E0,4.790162E1,8.975269E0,1.8246267E1,5.7386627E0,5.253348E0,2.8866473E2,5.786743E1,9.301511E0,1.9564669E1,6.479932E0,4.7473625E1,5.024009E0,5.1751685E0,2.1527006E1,1.6471466E1,2.1231205E1,5.334787E0,5.9250054E0,9.116785E0,5.651836E1,3.0768587E1],"tree_param":{"num_deleted":"0","num_feature":"25","num_nodes":"69","size_leaf_vector":"1"}},{"base_weights":[8.431924E-3,3.334247E-1,-7.6463205E-1,6.125185E-1,5.0386563E-2,-4.1983005E-1,-1.0593815E0,8.5353667E-1,4.337631E-1,4.361474E-1,-7.498273E-2,-8.131715E-1,-1.0119193E-1,-1.154665E0,-4.7276497E-1,1.1796136E0,5.9922063E-1,4.9453536E-1,-3.6043176E-1,5.680469E-1,-2.4195557E-2,2.5296966E-2,-1.16067484E-1,-6.16738E-1,-1.156179E0,3.069233E-1,-6.421184E-1,-2.0595847E-3,-1.2040967E0,1.4459914E-2,-7.8926957E-1,1.4986296E0,8.0286187E-1,-2.1112478E-1,7.403681E-1,5.5447793E-1,-1.50179295E-2,1.037334E-2,-2.4595061E-2,2.6535514E-1,8.350117E-1,3.408994E-1,-2.0318018E-1,6.766845E-4,-8.2334965E-1,-1.6564779E-2,-4.340508E-2,1.1290059E-1,2.8819116E-2,-1.112746E0,-5.737168E-2,-8.823958E-1,-1.3289567E0,-3.3476114E-2,-7.6903086E-3,2.360094E-2,4.81307E-2,-1.149683E-2,3.2586604E-2,-2.4681585E-2,1.3788047E-2,2.8020805E-2,2.8176322E-3,1.8849423E-2,6.088243E-4,2.4996875E-3,3.0223424E-2,4.1015916E-2,5.99527E-3,-3.3692375E-3,2.814586E-2,-8.928126E-3,1.0897991E-2,-9.620147E-3,-3.4093443E-2,1.9183012E-2,-7.2959573E-3,-3.918776E-2,-2.2222808E-2,1.9773845E-2,-1.7435031E-2,-1.2848373E-2,-4.075746E-2,-4.517762E-2,-3.2080393E-2],"categories":[],"categories_nodes":[],"categories_segments":[],"categories_sizes":[],"default_left":[0,0,0,0,0,0,0,0,0,0,0,0,0,0,0,0,0,0,0,0,0,0,0,0,0,0,0,0,0,0,0,0,0,0,0,0,0,0,0,0,0,0,0,0,0,0,0,0,0,0,0,0,0,0,0,0,0,0,0,0,0,0,0,0,0,0,0,0,0,0,0,0,0,0,0,0,0,0,0,0,0,0,0,0,0],"id":11,"left_children":[1,3,5,7,9,11,13,15,17,19,21,23,25,27,29,31,33,35,37,39,-1,-1,41,43,45,47,49,-1,51,-1,53,55,57,59,61,63,-1,-1,-1,65,67,69,71,-1,73,-1,-1,75,-1,77,79,81,83,-1,-1,-1,-1,-1,-1,-1,-1,-1,-1,-1,-1,-1,-1,-1,-1,-1,-1,-1,-1,-1,-1,-1,-1,-1,-1,-1,-1,-1,-1,-1,-1],"loss_changes":[2.3072862E2,5.099195E1,2.7027374E1,1.3519211E1,1.565951E1,1.5751589E1,7.435669E0,1.049984E1,9.318043E0,1.3450661E1,9.22838E0,2.9221153E0,1.6010597E1,6.473999E0,7.1196766E0,5.6519394E0,9.283354E0,1.0792648E1,4.841245E0,5.523117E0,0E0,0E0,9.390102E0,5.158517E0,2.3852997E0,5.0241246E0,8.396333E0,0E0,3.3836823E0,0E0,2.5583954E0,8.0379486E-1,1.034305E1,5.5181875E0,8.30896E0,6.499222E0,0E0,0E0,0E0,4.615391E0,1.2366718E1,1.0402609E1,1.0678894E1,0E0,4.0691814E0,0E0,0E0,6.4029484E0,0E0,6.001091E-2,6.0226645E0,7.1227417E0,1.967453E0,0E0,0E0,0E0,0E0,0E0,0E0,0E0,0E0,0E0,0E0,0E0,0E0,0E0,0E0,0E0,0E0,0E0,0E0,0E0,0E0,0E0,0E0,0E0,0E0,0E0,0E0,0E0,0E0,0E0,0E0,0E0,0E0],"parents":[2147483647,0,0,1,1,2,2,3,3,4,4,5,5,6,6,7,7,8,8,9,9,10,10,11,11,12,12,13,13,14,14,15,15,16,16,17,17,18,18,19,19,22,22,23,23,24,24,25,25,26,26,28,28,30,30,31,31,32,32,33,33,34,34,35,35,39,39,40,40,41,41,42,42,44,44,47,47,49,49,50,50,51,51,52,52],"right_children":[2,4,6,8,10,12,14,16,18,20,22,24,26,28,30,32,34,36,38,40,-1,-1,42,44,46,48,50,-1,52,-1,54,56,58,60,62,64,-1,-1,-1,66,68,70,72,-1,74,-1,-1,76,-1,78,80,82,84,-1,-1,-1,-1,-1,-1,-1,-1,-1,-1,-1,-1,-1,-1,-1,-1,-1,-1,-1,-1,-1,-1,-1,-1,-1,-1,-1,-1,-1,-1,-1,-1],"split_conditions":[-2.3497745E-1,-8.7603104E-1,1.7120525E-1,-9.157106E-1,5.0074375E-1,-4.936979E-1,-4.2157152E-1,5.0074375E-1,-5.1900905E-1,-5.786842E-1,-4.3428013E-1,-6.5379925E-2,-8.649592E-1,-4.3505493E-1,-4.7278437E-1,-9.359508E-1,-1.16651356E-1,-1.6637482E-2,-4.3152943E-1,1.403795E-1,-2.4195557E-2,2.5296966E-2,-1.1452045E-1,-2.4426536E-1,-2.09755E0,-6.6172886E-1,-1.2750915E-1,-2.0595847E-3,-1.1504482E-1,1.4459914E-2,-8.7603104E-1,-9.3786865E-1,-9.2975074E-1,-2.2713429E-1,-1.1482019E-1,-4.5399648E-1,-1.50179295E-2,1.037334E-2,-2.4595061E-2,-4.2182338E-1,-8.8561475E-1,-1.1648091E-1,-4.6980652E-1,6.766845E-4,-8.918031E-1,-1.6564779E-2,-4.340508E-2,-1.3578525E-1,2.8819116E-2,-9.103746E-1,-1.13505855E-1,5.010265E-1,7.695978E-2,-3.3476114E-2,-7.6903086E-3,2.360094E-2,4.81307E-2,-1.149683E-2,3.2586604E-2,-2.4681585E-2,1.3788047E-2,2.8020805E-2,2.8176322E-3,1.8849423E-2,6.088243E-4,2.4996875E-3,3.0223424E-2,4.1015916E-2,5.99527E-3,-3.3692375E-3,2.814586E-2,-8.928126E-3,1.0897991E-2,-9.620147E-3,-3.4093443E-2,1.9183012E-2,-7.2959573E-3,-3.918776E-2,-2.2222808E-2,1.9773845E-2,-1.7435031E-2,-1.2848373E-2,-4.075746E-2,-4.517762E-2,-3.2080393E-2],"split_indices":[24,19,24,19,21,23,0,21,23,23,0,24,19,0,23,19,8,9,0,4,0,0,8,10,7,1,9,0,8,0,19,19,19,7,9,5,0,0,0,0,7,8,5,0,19,0,0,9,0,7,9,24,4,0,0,0,0,0,0,0,0,0,0,0,0,0,0,0,0,0,0,0,0,0,0,0,0,0,0,0,0,0,0,0,0],"split_type":[0,0,0,0,0,0,0,0,0,0,0,0,0,0,0,0,0,0,0,0,0,0,0,0,0,0,0,0,0,0,0,0,0,0,0,0,0,0,0,0,0,0,0,0,0,0,0,0,0,0,0,0,0,0,0,0,0,0,0,0,0,0,0,0,0,0,0,0,0,0,0,0,0,0,0,0,0,0,0,0,0,0,0,0,0],"sum_hessian":[9.165155E2,6.457451E2,2.707704E2,3.2437405E2,3.2137103E2,1.2606337E2,1.4470703E2,1.3628496E2,1.8808908E2,7.841307E1,2.4295798E2,5.558314E1,7.0480225E1,1.23507095E2,2.1199936E1,5.795065E1,7.8334305E1,1.751869E2,1.2902181E1,7.145231E1,6.9607677E0,9.464947E0,2.3349303E2,3.7307472E1,1.827567E1,4.0312897E1,3.0167326E1,5.5689564E0,1.1793813E2,5.069263E0,1.6130674E1,2.9623583E1,2.8327066E1,1.1441721E1,6.6892586E1,1.6574635E2,9.440552E0,5.096831E0,7.80535E0,3.4595528E1,3.685678E1,3.6734367E1,1.9675865E2,9.211679E0,2.8095793E1,6.991093E0,1.1284576E1,3.2108696E1,8.204202E0,1.611963E1,1.4047694E1,3.5455463E1,8.248267E1,9.206821E0,6.9238524E0,5.044205E0,2.4579378E1,5.3263817E0,2.3000685E1,5.9441204E0,5.497601E0,5.1011356E1,1.58812275E1,1.452993E2,2.0447054E1,2.8782364E1,5.813162E0,1.9341396E1,1.7515385E1,2.1252935E1,1.5481433E1,1.6920425E2,2.755441E1,1.1682759E1,1.6413034E1,1.2746582E1,1.9362114E1,8.774559E0,7.3450727E0,5.7428184E0,8.304875E0,1.9228003E1,1.6227459E1,4.5964783E1,3.651789E1],"tree_param":{"num_deleted":"0","num_feature":"25","num_nodes":"85","size_leaf_vector":"1"}},{"base_weights":[1.5609355E-3,3.043592E-1,-7.703698E-1,7.3766476E-1,1.410096E-1,-5.132654E-1,-1.1396514E0,8.094326E-1,7.1435854E-2,3.6926338E-1,-8.81794E-3,-3.7122512E-1,-8.129546E-1,-1.2106657E0,-1.1292589E-2,-1.2533808E-3,8.449128E-1,-2.8997967E-1,2.372247E-2,1.4924775E-1,7.802794E-1,-2.04788E-1,3.0934918E-1,-4.260626E-1,1.2089939E-2,-9.7003794E-1,1.01365475E-2,-1.2565596E0,-1.2082292E-2,6.973341E-1,1.0991036E0,8.806E-3,-2.2275135E-2,2.2698493E-1,-5.9751534E-1,1.0014007E0,1.9901061E-1,1.7521116E-1,-3.425153E-1,3.6519387E-1,-2.094793E-2,-2.6292044E-1,-7.9740673E-1,-1.317098E0,-6.005943E-1,-1.3089349E0,-2.124822E-2,2.4174072E-2,6.2384125E-4,3.513378E-2,9.14228E-3,-1.2616771E-2,1.0413253E-2,-2.975488E-2,-1.5103327E-3,2.6234218E-3,3.5850007E-2,-1.2474635E-2,2.953745E-2,-1.8712373E-2,9.882179E-3,-1.5435562E-2,1.0856332E-2,1.7606344E-2,-1.0765698E-4,1.9523649E-2,-1.0521549E-2,-4.5994105E-4,-2.9098038E-2,-2.4648437E-2,-4.4746704E-2,-2.9922185E-2,-6.169935E-4,-2.5333129E-2,-4.111422E-2],"categories":[],"categories_nodes":[],"categories_segments":[],"categories_sizes":[],"default_left":[0,0,0,0,0,0,0,0,0,0,0,0,0,0,0,0,0,0,0,0,0,0,0,0,0,0,0,0,0,0,0,0,0,0,0,0,0,0,0,0,0,0,0,0,0,0,0,0,0,0,0,0,0,0,0,0,0,0,0,0,0,0,0,0,0,0,0,0,0,0,0,0,0,0,0],"id":12,"left_children":[1,3,5,7,9,11,13,15,17,19,21,23,25,27,-1,-1,29,31,-1,33,35,37,39,41,-1,43,-1,45,-1,47,49,-1,-1,51,53,55,57,59,61,63,-1,65,67,69,71,73,-1,-1,-1,-1,-1,-1,-1,-1,-1,-1,-1,-1,-1,-1,-1,-1,-1,-1,-1,-1,-1,-1,-1,-1,-1,-1,-1,-1,-1],"loss_changes":[2.1577843E2,4.6756462E1,2.394069E1,8.517509E0,1.6560913E1,6.190357E0,5.117996E0,5.0486145E0,5.18048E0,1.7129183E1,1.8282604E1,4.734915E0,9.22538E0,2.894577E0,0E0,0E0,4.9420547E0,3.7449362E0,0E0,7.429268E0,8.222244E0,9.587619E0,6.5039396E0,5.7986374E0,0E0,4.573498E0,0E0,1.4680481E0,0E0,7.4070168E0,2.6805649E0,0E0,0E0,9.101008E0,2.4479175E0,8.219566E0,9.97466E0,6.1894093E0,1.6426273E1,8.769839E0,0E0,5.9581227E0,3.9516335E0,3.901329E-1,5.1640806E0,9.4229126E-1,0E0,0E0,0E0,0E0,0E0,0E0,0E0,0E0,0E0,0E0,0E0,0E0,0E0,0E0,0E0,0E0,0E0,0E0,0E0,0E0,0E0,0E0,0E0,0E0,0E0,0E0,0E0,0E0,0E0],"parents":[2147483647,0,0,1,1,2,2,3,3,4,4,5,5,6,6,7,7,8,8,9,9,10,10,11,11,12,12,13,13,16,16,17,17,19,19,20,20,21,21,22,22,23,23,25,25,27,27,29,29,30,30,33,33,34,34,35,35,36,36,37,37,38,38,39,39,41,41,42,42,43,43,44,44,45,45],"right_children":[2,4,6,8,10,12,14,16,18,20,22,24,26,28,-1,-1,30,32,-1,34,36,38,40,42,-1,44,-1,46,-1,48,50,-1,-1,52,54,56,58,60,62,64,-1,66,68,70,72,74,-1,-1,-1,-1,-1,-1,-1,-1,-1,-1,-1,-1,-1,-1,-1,-1,-1,-1,-1,-1,-1,-1,-1,-1,-1,-1,-1,-1,-1],"split_conditions":[-1.947929E-1,-9.061271E-1,3.0161062E-1,-7.435557E-2,-1.13437414E-1,-8.2855606E-1,-6.3950276E-1,-1.2519456E-1,-2.2823682E-1,1.687219E-1,-4.2842197E-1,4.3986754E0,-9.6189335E-2,-3.9993477E-1,-1.1292589E-2,-1.2533808E-3,8.334335E-1,-9.310926E-1,2.372247E-2,5.0542504E-1,2.0664368E0,-8.7183166E-1,-5.1353705E-1,1.3178183E-1,1.2089939E-2,-1.3044553E-1,1.01365475E-2,-4.0935838E-1,-1.2082292E-2,-5.9636164E-1,-9.4649546E-2,8.806E-3,-2.2275135E-2,-1.18595034E-1,-1.1394397E-1,-1.2279303E0,5.289911E0,-1.5247087E-1,-4.72334E-1,-1.2040241E-1,-2.094793E-2,-2.5293842E-1,-2.825564E0,-7.9867876E-1,-4.8344353E-1,-9.220427E-1,-2.124822E-2,2.4174072E-2,6.2384125E-4,3.513378E-2,9.14228E-3,-1.2616771E-2,1.0413253E-2,-2.975488E-2,-1.5103327E-3,2.6234218E-3,3.5850007E-2,-1.2474635E-2,2.953745E-2,-1.8712373E-2,9.882179E-3,-1.5435562E-2,1.0856332E-2,1.7606344E-2,-1.0765698E-4,1.9523649E-2,-1.0521549E-2,-4.5994105E-4,-2.9098038E-2,-2.4648437E-2,-4.4746704E-2,-2.9922185E-2,-6.169935E-4,-2.5333129E-2,-4.111422E-2],"split_indices":[24,19,24,9,8,19,1,8,10,4,0,7,8,0,0,0,3,19,0,3,7,19,23,24,0,9,0,5,0,24,8,0,0,8,8,7,7,9,5,9,0,10,7,3,23,19,0,0,0,0,0,0,0,0,0,0,0,0,0,0,0,0,0,0,0,0,0,0,0,0,0,0,0,0,0],"split_type":[0,0,0,0,0,0,0,0,0,0,0,0,0,0,0,0,0,0,0,0,0,0,0,0,0,0,0,0,0,0,0,0,0,0,0,0,0,0,0,0,0,0,0,0,0,0,0,0,0,0,0,0,0,0,0,0,0,0,0,0,0,0,0,0,0,0,0,0,0,0,0,0,0,0,0],"sum_hessian":[9.2135474E2,6.622969E2,2.590579E2,1.8019054E2,4.8210632E2,1.542944E2,1.04763504E2,1.6233803E2,1.7852499E1,1.9073506E2,2.9137128E2,1.06425514E2,4.7868885E1,9.518942E1,9.574076E0,6.37594E0,1.559621E2,1.2187028E1,5.6654706E0,1.25279655E2,6.545541E1,1.8072635E2,1.1064491E2,9.992665E1,6.4988575E0,4.2334457E1,5.5344276E0,8.943028E1,5.7591457E0,1.0129102E2,5.4671074E1,5.380039E0,6.8069887E0,1.1421949E2,1.1060166E1,4.676909E1,1.8686316E1,4.7811867E1,1.3291449E2,1.0553281E2,5.112106E0,7.0799644E1,2.9127007E1,2.036632E1,2.1968138E1,8.019947E1,9.230808E0,8.70031E1,1.4287923E1,4.9575974E1,5.095102E0,1.735127E1,9.686822E1,5.849422E0,5.2107444E0,8.519255E0,3.8249836E1,1.0674913E1,8.011402E0,7.1371527E0,4.0674713E1,1.0715916E2,2.5755325E1,6.571167E1,3.9821136E1,5.5447125E0,6.525494E1,5.5657454E0,2.3561262E1,6.9396424E0,1.3426678E1,1.2514594E1,9.453544E0,1.1294617E1,6.8904854E1],"tree_param":{"num_deleted":"0","num_feature":"25","num_nodes":"75","size_leaf_vector":"1"}},{"base_weights":[1.3321387E-2,3.1469223E-1,-6.8630517E-1,5.8309495E-1,6.082872E-2,-3.7320936E-1,-1.1027881E0,7.9211015E-1,4.0875575E-1,5.0287986E-1,-7.76112E-2,-2.153426E-1,-7.389211E-1,-8.11506E-1,-1.3009679E0,1.0755727E0,5.901977E-1,4.7369936E-1,-1.8571459E-2,6.3782614E-1,-2.3367511E-2,1.3510811E-1,-1.9189504E-1,-4.3053693E-1,1.2248076E-1,-1.3902411E-1,-9.4635993E-1,-9.435852E-1,7.088006E-3,-4.448842E-2,-1.0667392E0,7.6581466E-1,4.306976E-2,-1.747789E-1,7.105417E-1,8.309115E-1,3.475237E-1,9.4306195E-1,2.9197574E-1,4.0813804E-1,-6.91863E-2,-2.7689502E-1,2.5942567E-1,-5.380683E-1,1.4157776E-2,7.2144574E-1,-1.4850037E-1,-2.0810552E-2,9.718293E-3,-1.263996E0,-4.720816E-1,-1.2069008E0,-5.018317E-1,-7.975412E-1,-4.198052E-2,9.5450104E-4,3.0052127E-2,-2.2954306E-2,1.3377426E-2,3.9635368E-2,1.6393067E-2,1.484368E-2,3.4887042E-2,5.2218135E-3,1.8770259E-2,1.0011784E-2,3.154506E-2,2.3646472E-2,-8.60305E-4,4.6709487E-3,3.1239098E-2,-1.1606549E-2,1.1429145E-2,-7.979335E-4,-1.3999887E-2,1.8978562E-2,-1.2528903E-2,-3.1945523E-2,-7.1632946E-3,3.5493594E-2,2.3386164E-3,2.364103E-3,-2.9099142E-2,-4.412964E-2,-1.6309058E-2,6.6651176E-3,-2.533995E-2,-1.7538063E-2,-4.126286E-2,8.038841E-4,-2.8703278E-2,-3.689385E-2,-1.3798127E-2],"categories":[],"categories_nodes":[],"categories_segments":[],"categories_sizes":[],"default_left":[0,0,0,0,0,0,0,0,0,0,0,0,0,0,0,0,0,0,0,0,0,0,0,0,0,0,0,0,0,0,0,0,0,0,0,0,0,0,0,0,0,0,0,0,0,0,0,0,0,0,0,0,0,0,0,0,0,0,0,0,0,0,0,0,0,0,0,0,0,0,0,0,0,0,0,0,0,0,0,0,0,0,0,0,0,0,0,0,0,0,0,0,0],"id":13,"left_children":[1,3,5,7,9,11,13,15,17,19,21,23,25,27,29,31,33,35,-1,37,-1,39,41,43,45,47,49,51,-1,-1,53,55,-1,57,59,61,63,65,67,69,71,73,75,77,-1,79,81,-1,-1,83,85,87,89,91,-1,-1,-1,-1,-1,-1,-1,-1,-1,-1,-1,-1,-1,-1,-1,-1,-1,-1,-1,-1,-1,-1,-1,-1,-1,-1,-1,-1,-1,-1,-1,-1,-1,-1,-1,-1,-1,-1,-1],"loss_changes":[1.939165E2,4.3712624E1,3.5542374E1,1.0934082E1,2.0384321E1,8.965069E0,5.5540924E0,7.249939E0,1.17976265E1,1.422134E1,6.190197E0,8.308901E0,5.6767654E0,7.3107452E0,1.08107E0,5.0489273E0,7.963812E0,6.938778E0,0E0,7.252676E0,0E0,5.0162425E0,6.423078E0,7.006914E0,7.4075036E0,3.731683E0,4.5075283E0,4.4944344E0,0E0,0E0,1.6848373E0,5.5768127E0,0E0,4.838564E0,6.445591E0,3.9024734E0,5.7147865E0,2.0148087E0,5.760371E0,5.8508086E0,7.5059776E0,6.585778E0,6.997115E0,9.498253E0,0E0,3.9961214E0,6.0360146E0,0E0,0E0,2.0197525E0,4.3302803E0,1.8879089E0,4.6343465E0,2.3498068E0,0E0,0E0,0E0,0E0,0E0,0E0,0E0,0E0,0E0,0E0,0E0,0E0,0E0,0E0,0E0,0E0,0E0,0E0,0E0,0E0,0E0,0E0,0E0,0E0,0E0,0E0,0E0,0E0,0E0,0E0,0E0,0E0,0E0,0E0,0E0,0E0,0E0,0E0,0E0],"parents":[2147483647,0,0,1,1,2,2,3,3,4,4,5,5,6,6,7,7,8,8,9,9,10,10,11,11,12,12,13,13,14,14,15,15,16,16,17,17,19,19,21,21,22,22,23,23,24,24,25,25,26,26,27,27,30,30,31,31,33,33,34,34,35,35,36,36,37,37,38,38,39,39,40,40,41,41,42,42,43,43,45,45,46,46,49,49,50,50,51,51,52,52,53,53],"right_children":[2,4,6,8,10,12,14,16,18,20,22,24,26,28,30,32,34,36,-1,38,-1,40,42,44,46,48,50,52,-1,-1,54,56,-1,58,60,62,64,66,68,70,72,74,76,78,-1,80,82,-1,-1,84,86,88,90,92,-1,-1,-1,-1,-1,-1,-1,-1,-1,-1,-1,-1,-1,-1,-1,-1,-1,-1,-1,-1,-1,-1,-1,-1,-1,-1,-1,-1,-1,-1,-1,-1,-1,-1,-1,-1,-1,-1,-1],"split_conditions":[-2.3497745E-1,-8.778829E-1,2.5957063E-1,-9.134383E-1,5.0074375E-1,-8.2855606E-1,4.482844E-1,5.0074375E-1,-1.6637482E-2,-5.9636164E-1,-1.13437414E-1,2.3028143E-2,-2.4331108E-1,-6.377614E-1,3.200862E-2,-1.6074977E0,-1.16651356E-1,-4.8110196E-1,-1.8571459E-2,-2.4155438E-1,-2.3367511E-2,-2.4290183E-1,-4.7047392E-1,-4.6591404E-1,-9.14431E-1,-4.7961465E-1,1.4412262E0,-4.7437605E-1,7.088006E-3,-4.448842E-2,5.2518602E-2,-1.8674251E0,4.306976E-2,-2.2713429E-1,-3.7432365E0,-4.7878554E-1,1.687219E-1,-2.9311812E0,-1.2663817E-1,4.8895788E-1,1.2759484E-1,-4.7857478E-1,-8.0456054E-1,-2.2927876E0,1.4157776E-2,-1.2750915E-1,6.459046E-1,-2.0810552E-2,9.718293E-3,-1.2113573E-1,-4.7944137E-1,-1.1739949E-1,-4.725394E-1,-4.588864E-1,-4.198052E-2,9.5450104E-4,3.0052127E-2,-2.2954306E-2,1.3377426E-2,3.9635368E-2,1.6393067E-2,1.484368E-2,3.4887042E-2,5.2218135E-3,1.8770259E-2,1.0011784E-2,3.154506E-2,2.3646472E-2,-8.60305E-4,4.6709487E-3,3.1239098E-2,-1.1606549E-2,1.1429145E-2,-7.979335E-4,-1.3999887E-2,1.8978562E-2,-1.2528903E-2,-3.1945523E-2,-7.1632946E-3,3.5493594E-2,2.3386164E-3,2.364103E-3,-2.9099142E-2,-4.412964E-2,-1.6309058E-2,6.6651176E-3,-2.533995E-2,-1.7538063E-2,-4.126286E-2,8.038841E-4,-2.8703278E-2,-3.689385E-2,-1.3798127E-2],"split_indices":[24,19,24,19,21,19,24,21,9,24,8,3,10,1,4,2,8,6,0,10,0,10,5,23,19,6,2,5,0,0,3,7,0,7,2,5,4,2,9,3,2,5,19,7,0,9,2,0,0,9,5,8,6,23,0,0,0,0,0,0,0,0,0,0,0,0,0,0,0,0,0,0,0,0,0,0,0,0,0,0,0,0,0,0,0,0,0,0,0,0,0,0,0],"split_type":[0,0,0,0,0,0,0,0,0,0,0,0,0,0,0,0,0,0,0,0,0,0,0,0,0,0,0,0,0,0,0,0,0,0,0,0,0,0,0,0,0,0,0,0,0,0,0,0,0,0,0,0,0,0,0,0,0,0,0,0,0,0,0,0,0,0,0,0,0,0,0,0,0,0,0,0,0,0,0,0,0,0,0,0,0,0,0,0,0,0,0,0,0],"sum_hessian":[9.178541E2,6.4199976E2,2.7585443E2,3.1124182E2,3.3075793E2,1.5869205E2,1.1716238E2,1.39672E2,1.7156982E2,7.842612E1,2.523318E2,1.1214478E2,4.6547256E1,4.9705414E1,6.745696E1,5.609652E1,8.357547E1,1.6197177E2,9.598057E0,7.148107E1,6.945044E0,8.781757E1,1.6451424E2,6.8519356E1,4.362543E1,1.2512974E1,3.4034283E1,4.431417E1,5.39124E0,3.4722137E1,3.273483E1,3.1985754E1,2.4110765E1,1.1186198E1,7.2389275E1,4.061368E1,1.2135808E2,3.689918E1,3.4581894E1,3.7368294E1,5.044928E1,1.3895251E2,2.5561718E1,6.1684082E1,6.835272E0,1.3186109E1,3.0439323E1,5.5642905E0,6.948683E0,1.9259663E1,1.4774619E1,2.653753E1,1.7776642E1,2.0136158E1,1.2598669E1,8.159338E0,2.3826416E1,5.696463E0,5.489735E0,1.3710928E1,5.8678345E1,2.1568407E1,1.9045277E1,7.596774E1,4.539034E1,6.329998E0,3.0569183E1,1.3124381E1,2.1457512E1,2.7720222E1,9.648069E0,2.9788654E1,2.0660625E1,6.063896E1,7.831355E1,1.6616201E1,8.945517E0,2.1300726E1,4.0383358E1,7.098958E0,6.087151E0,2.4454906E1,5.984417E0,1.40435E1,5.216162E0,5.2071667E0,9.567452E0,6.734024E0,1.9803507E1,8.5560875E0,9.220553E0,7.5414605E0,1.2594697E1],"tree_param":{"num_deleted":"0","num_feature":"25","num_nodes":"93","size_leaf_vector":"1"}},{"base_weights":[2.5860146E-2,3.0000487E-1,-7.235115E-1,5.980995E-1,3.776119E-2,-5.0163376E-1,-1.2574557E0,9.039955E-1,4.3314436E-1,3.009575E-1,-1.2587005E-1,-1.1897999E0,-4.3322906E-1,-8.2683134E-1,-1.3287971E0,9.9472713E-1,-0E0,-2.599033E-1,5.197276E-1,9.9657E-2,6.754359E-1,-3.992633E-2,-6.5394616E-1,-4.518596E-2,-2.2169925E-2,-8.877386E-2,-6.64842E-1,-3.6193665E-2,-5.6065777E-3,-4.407408E-2,-1.0326803E0,1.3961074E0,8.183463E-1,-8.27253E-1,1.3415823E-2,1.7357716E-1,7.059802E-1,-2.5810428E-2,7.453669E-1,1.1512283E0,3.8497555E-1,1.1294521E-1,-2.788386E-1,-2.268378E-1,-9.665076E-1,1.7261468E-1,-6.856075E-1,2.8119313E-3,-7.2010416E-1,-6.03742E-1,-4.280994E-2,1.8939393E-2,4.6082996E-2,-9.806566E-3,2.7355412E-2,2.9793778E-3,-5.1509E-2,-1.1385342E-2,1.0470353E-2,2.4527082E-2,1.3735439E-2,4.5097363E-3,-1.1290902E-2,4.456414E-3,3.6281385E-2,7.575565E-3,4.4699486E-2,2.71464E-2,6.6254856E-3,-1.1942226E-2,1.06276795E-2,4.4987877E-3,-2.0022476E-2,5.5407383E-3,-2.2811437E-2,-4.2938516E-2,-1.369514E-2,3.266814E-2,1.953368E-4,-2.771497E-2,-1.5820538E-3,-2.5030978E-2,-6.1587533E-3,-4.07246E-2,8.214504E-3],"categories":[],"categories_nodes":[],"categories_segments":[],"categories_sizes":[],"default_left":[0,0,0,0,0,0,0,0,0,0,0,0,0,0,0,0,0,0,0,0,0,0,0,0,0,0,0,0,0,0,0,0,0,0,0,0,0,0,0,0,0,0,0,0,0,0,0,0,0,0,0,0,0,0,0,0,0,0,0,0,0,0,0,0,0,0,0,0,0,0,0,0,0,0,0,0,0,0,0,0,0,0,0,0,0],"id":14,"left_children":[1,3,5,7,9,11,13,15,17,19,21,23,25,27,29,31,-1,33,35,37,39,41,43,-1,-1,45,47,-1,-1,-1,49,51,53,55,-1,57,59,61,63,65,67,69,71,73,75,77,79,-1,81,83,-1,-1,-1,-1,-1,-1,-1,-1,-1,-1,-1,-1,-1,-1,-1,-1,-1,-1,-1,-1,-1,-1,-1,-1,-1,-1,-1,-1,-1,-1,-1,-1,-1,-1,-1],"loss_changes":[1.8842935E2,5.2424896E1,2.8294373E1,1.5325333E1,1.5499145E1,7.575527E0,8.765869E-1,8.989899E0,1.2535E1,1.0258231E1,9.961508E0,8.2289886E-1,1.2724545E1,2.7889757E0,6.9831085E-1,5.6476517E0,0E0,9.811178E0,1.1637474E1,7.4718795E0,6.0230656E0,7.053376E0,3.7716007E0,0E0,0E0,1.0486464E1,4.156502E0,0E0,0E0,0E0,2.770235E0,1.8804588E0,8.001442E0,1.14071245E1,0E0,6.514345E0,2.7922287E0,4.840742E0,3.834404E0,4.784775E0,2.364924E0,1.4616319E1,1.27125435E1,3.3712292E0,3.2671852E0,6.9870424E0,2.9381752E0,0E0,5.004978E0,8.890171E0,0E0,0E0,0E0,0E0,0E0,0E0,0E0,0E0,0E0,0E0,0E0,0E0,0E0,0E0,0E0,0E0,0E0,0E0,0E0,0E0,0E0,0E0,0E0,0E0,0E0,0E0,0E0,0E0,0E0,0E0,0E0,0E0,0E0,0E0,0E0],"parents":[2147483647,0,0,1,1,2,2,3,3,4,4,5,5,6,6,7,7,8,8,9,9,10,10,11,11,12,12,13,13,14,14,15,15,17,17,18,18,19,19,20,20,21,21,22,22,25,25,26,26,30,30,31,31,32,32,33,33,35,35,36,36,37,37,38,38,39,39,40,40,41,41,42,42,43,43,44,44,45,45,46,46,48,48,49,49],"right_children":[2,4,6,8,10,12,14,16,18,20,22,24,26,28,30,32,-1,34,36,38,40,42,44,-1,-1,46,48,-1,-1,-1,50,52,54,56,-1,58,60,62,64,66,68,70,72,74,76,78,80,-1,82,84,-1,-1,-1,-1,-1,-1,-1,-1,-1,-1,-1,-1,-1,-1,-1,-1,-1,-1,-1,-1,-1,-1,-1,-1,-1,-1,-1,-1,-1,-1,-1,-1,-1,-1,-1],"split_conditions":[-1.4417963E-1,-8.807283E-1,4.482844E-1,5.0074375E-1,-1.13437414E-1,-5.0104076E-1,-9.1504955E-1,4.2360992E0,-1.0281998E0,6.396114E-1,-5.2637863E-1,-4.306352E-1,9.773133E-2,-4.4859096E-1,-5.6159097E-1,-9.359508E-1,-0E0,-1.3351965E0,-4.2949155E-1,2.943736E0,-1.1117793E0,-8.02374E-1,-8.424171E-1,-4.518596E-2,-2.2169925E-2,-8.414517E-1,-4.347623E-1,-3.6193665E-2,-5.6065777E-3,-4.407408E-2,-8.2224673E-1,-9.3714994E-1,-9.2975074E-1,-1.7570697E0,1.3415823E-2,-1.15304455E-1,-8.9902925E-1,-7.9732454E-1,1.2759484E-1,-1.4999566E0,-4.8086265E-1,-1.0979936E0,4.426852E-3,-1.918447E-1,-2.7742514E-2,-1.4708961E0,1.92051E0,2.8119313E-3,-4.6235353E-1,-8.75351E-1,-4.280994E-2,1.8939393E-2,4.6082996E-2,-9.806566E-3,2.7355412E-2,2.9793778E-3,-5.1509E-2,-1.1385342E-2,1.0470353E-2,2.4527082E-2,1.3735439E-2,4.5097363E-3,-1.1290902E-2,4.456414E-3,3.6281385E-2,7.575565E-3,4.4699486E-2,2.71464E-2,6.6254856E-3,-1.1942226E-2,1.06276795E-2,4.4987877E-3,-2.0022476E-2,5.5407383E-3,-2.2811437E-2,-4.2938516E-2,-1.369514E-2,3.266814E-2,1.953368E-4,-2.771497E-2,-1.5820538E-3,-2.5030978E-2,-6.1587533E-3,-4.07246E-2,8.214504E-3],"split_indices":[24,19,24,21,8,23,19,20,3,3,23,0,24,23,3,19,0,2,0,7,7,19,19,0,0,19,0,0,0,0,19,19,19,3,0,8,19,19,2,7,6,7,3,3,2,3,2,0,23,19,0,0,0,0,0,0,0,0,0,0,0,0,0,0,0,0,0,0,0,0,0,0,0,0,0,0,0,0,0,0,0,0,0,0,0],"split_type":[0,0,0,0,0,0,0,0,0,0,0,0,0,0,0,0,0,0,0,0,0,0,0,0,0,0,0,0,0,0,0,0,0,0,0,0,0,0,0,0,0,0,0,0,0,0,0,0,0,0,0,0,0,0,0,0,0,0,0,0,0,0,0,0,0,0,0,0,0,0,0,0,0,0,0,0,0,0,0,0,0,0,0,0,0],"sum_hessian":[9.153651E2,6.7072504E2,2.446401E2,3.1312787E2,3.5759717E2,1.7432643E2,7.0313675E1,1.0791737E2,2.0521048E2,1.370032E2,2.2059398E2,1.4147198E1,1.6017923E2,1.1981783E1,5.833189E1,9.803973E1,9.877653E0,2.2439428E1,1.8277106E2,9.010207E1,4.6901123E1,1.9080557E2,2.9788391E1,6.8068113E0,7.3403864E0,6.5131134E1,9.5048096E1,6.866796E0,5.114987E0,3.6659E1,2.1672892E1,2.7645678E1,7.039404E1,1.2434181E1,1.0005247E1,6.480318E1,1.1796788E2,7.6117E1,1.3985081E1,1.6524769E1,3.0376354E1,1.1642074E2,7.438484E1,1.34520855E1,1.6336308E1,4.5671936E1,1.9459196E1,6.2839427E0,8.876415E1,1.17145405E1,9.95835E0,5.240451E0,2.2405228E1,5.044278E0,6.534977E1,6.471066E0,5.9631157E0,1.5187774E1,4.9615406E1,7.951205E1,3.845583E1,5.0852253E1,2.5264744E1,6.788834E0,7.196247E0,5.082261E0,1.1442508E1,6.0593734E0,2.4316982E1,3.7000797E1,7.9419945E1,3.5531864E1,3.8852974E1,7.857729E0,5.594356E0,7.4994245E0,8.836883E0,6.0636272E0,3.960831E1,1.3688745E1,5.770451E0,7.197455E1,1.6789604E1,6.068932E0,5.645609E0],"tree_param":{"num_deleted":"0","num_feature":"25","num_nodes":"85","size_leaf_vector":"1"}},{"base_weights":[-1.424443E-2,2.799516E-1,-7.3040515E-1,7.4227625E-1,1.4564274E-1,-5.3292745E-1,-1.2845713E0,1.0625918E0,5.1253587E-1,4.1916254E-1,-2.6086422E-2,1.3311506E-2,-5.833492E-1,-4.010449E-2,-2.434406E-2,4.302915E-2,6.824858E-1,3.998524E-1,4.4207156E-2,5.097262E-1,-3.9865458E-1,1.13259025E-1,-4.2631707E-1,-4.1242993E-1,-7.989718E-1,-8.410029E-3,9.339377E-1,-1.3282986E-1,5.274973E-1,3.5764152E-1,8.0324566E-1,-6.90181E-1,3.885745E-3,-3.7380565E-2,4.3809098E-1,-2.3564412E-3,-6.672406E-1,2.4690323E-2,-5.786303E-1,-3.656759E-1,-9.887817E-1,3.305191E-2,1.0575847E-2,-2.0738354E-2,1.7443273E-2,8.531815E-3,2.8850975E-2,2.3314007E-2,7.498136E-3,2.9652743E-2,9.04406E-3,-6.883653E-3,-3.4239396E-2,1.0576303E-2,-5.389526E-3,4.1313823E-3,2.3047617E-2,-1.0274254E-2,1.1692221E-2,1.513465E-3,-2.4700275E-2,-1.14630675E-2,1.9329648E-2,-1.0644979E-2,-2.9023878E-2,-2.1278558E-2,2.422781E-2,3.229099E-3,-3.3147648E-2],"categories":[],"categories_nodes":[],"categories_segments":[],"categories_sizes":[],"default_left":[0,0,0,0,0,0,0,0,0,0,0,0,0,0,0,0,0,0,0,0,0,0,0,0,0,0,0,0,0,0,0,0,0,0,0,0,0,0,0,0,0,0,0,0,0,0,0,0,0,0,0,0,0,0,0,0,0,0,0,0,0,0,0,0,0,0,0,0,0],"id":15,"left_children":[1,3,5,7,9,11,13,15,17,19,21,-1,23,-1,-1,-1,25,27,-1,29,31,33,35,37,39,-1,41,43,45,47,49,51,-1,53,55,57,59,61,63,65,67,-1,-1,-1,-1,-1,-1,-1,-1,-1,-1,-1,-1,-1,-1,-1,-1,-1,-1,-1,-1,-1,-1,-1,-1,-1,-1,-1,-1],"loss_changes":[1.9258382E2,4.0020634E1,2.826387E1,9.996994E0,2.36907E1,1.002776E1,4.0814972E-1,7.231865E0,8.620945E0,1.4612492E1,1.7362535E1,0E0,6.5110016E0,0E0,0E0,0E0,7.9566755E0,5.490386E0,0E0,7.433964E0,3.1992157E0,1.1333907E1,8.146305E0,7.8938694E0,6.2634583E0,0E0,1.9344444E0,6.773139E0,6.377733E0,5.019655E0,5.045418E0,2.3153439E0,0E0,8.820069E0,7.073696E0,4.169077E0,5.8469543E0,7.950579E0,6.3325844E0,1.1362131E1,7.402199E0,0E0,0E0,0E0,0E0,0E0,0E0,0E0,0E0,0E0,0E0,0E0,0E0,0E0,0E0,0E0,0E0,0E0,0E0,0E0,0E0,0E0,0E0,0E0,0E0,0E0,0E0,0E0,0E0],"parents":[2147483647,0,0,1,1,2,2,3,3,4,4,5,5,6,6,7,7,8,8,9,9,10,10,12,12,16,16,17,17,19,19,20,20,21,21,22,22,23,23,24,24,26,26,27,27,28,28,29,29,30,30,31,31,33,33,34,34,35,35,36,36,37,37,38,38,39,39,40,40],"right_children":[2,4,6,8,10,12,14,16,18,20,22,-1,24,-1,-1,-1,26,28,-1,30,32,34,36,38,40,-1,42,44,46,48,50,52,-1,54,56,58,60,62,64,66,68,-1,-1,-1,-1,-1,-1,-1,-1,-1,-1,-1,-1,-1,-1,-1,-1,-1,-1,-1,-1,-1,-1,-1,-1,-1,-1,-1,-1],"split_conditions":[-2.3497745E-1,-9.1403633E-1,4.482844E-1,5.0074375E-1,-1.13437414E-1,-4.346809E-1,-9.2134096E-2,-9.359508E-1,-3.7987372E-1,-4.455582E-1,-8.02374E-1,1.3311506E-2,1.0958264E-1,-4.010449E-2,-2.434406E-2,4.302915E-2,-9.2975074E-1,-9.3714994E-1,4.4207156E-2,1.687219E-1,-8.4887975E-1,1.5918908E-1,-6.8825763E-1,-2.4326108E-1,-1.9767283E0,-8.410029E-3,-4.1046265E-1,-1.0856817E-1,-2.4116464E-1,-4.3243894E-1,2.0664368E0,-4.237766E-1,3.885745E-3,-4.8157075E-1,-4.2818543E-1,-4.3102714E-1,-1.8037266E0,-4.89601E-1,-8.414517E-1,-6.377614E-1,-1.2084506E-1,3.305191E-2,1.0575847E-2,-2.0738354E-2,1.7443273E-2,8.531815E-3,2.8850975E-2,2.3314007E-2,7.498136E-3,2.9652743E-2,9.04406E-3,-6.883653E-3,-3.4239396E-2,1.0576303E-2,-5.389526E-3,4.1313823E-3,2.3047617E-2,-1.0274254E-2,1.1692221E-2,1.513465E-3,-2.4700275E-2,-1.14630675E-2,1.9329648E-2,-1.0644979E-2,-2.9023878E-2,-2.1278558E-2,2.422781E-2,3.229099E-3,-3.3147648E-2],"split_indices":[24,19,24,21,8,0,8,19,0,6,19,0,24,0,0,0,19,19,0,4,19,4,1,10,2,0,0,8,10,0,7,0,0,6,0,0,7,23,19,1,8,0,0,0,0,0,0,0,0,0,0,0,0,0,0,0,0,0,0,0,0,0,0,0,0,0,0,0,0],"split_type":[0,0,0,0,0,0,0,0,0,0,0,0,0,0,0,0,0,0,0,0,0,0,0,0,0,0,0,0,0,0,0,0,0,0,0,0,0,0,0,0,0,0,0,0,0,0,0,0,0,0,0,0,0,0,0,0,0,0,0,0,0,0,0,0,0,0,0,0,0],"sum_hessian":[9.1187103E2,6.466849E2,2.6518616E2,1.4438936E2,5.022955E2,1.9709373E2,6.809242E1,5.8610798E1,8.5778564E1,1.9340047E2,3.0889505E2,9.195627E0,1.878981E2,5.9486313E1,8.606114E0,2.809733E1,3.0513468E1,7.813696E1,7.641602E0,1.7456808E2,1.8832373E1,2.2946945E2,7.942558E1,1.0669769E2,8.120041E1,6.2125998E0,2.4300869E1,1.4945014E1,6.3191948E1,1.16673706E2,5.7894382E1,1.2059046E1,6.7733274E0,1.5716286E2,7.23066E1,2.9296492E1,5.012909E1,2.9461466E1,7.723623E1,2.578716E1,5.541325E1,1.8030422E1,6.2704453E0,8.484031E0,6.460983E0,4.1719234E1,2.1472713E1,2.2376423E1,9.429728E1,4.1434116E1,1.6460266E1,6.8221264E0,5.2369194E0,4.1430984E1,1.15731865E2,3.876168E1,3.354492E1,1.5892434E1,1.3404057E1,8.961978E0,4.1167114E1,1.791928E1,1.1542187E1,5.0398457E1,2.6837772E1,2.0317558E1,5.4696035E0,5.2320704E0,5.018118E1],"tree_param":{"num_deleted":"0","num_feature":"25","num_nodes":"69","size_leaf_vector":"1"}},{"base_weights":[2.6931804E-2,3.0418402E-1,-6.448196E-1,7.3083794E-1,1.24589585E-1,-4.1514432E-1,-1.1050422E0,7.461489E-2,7.9523295E-1,4.151033E-1,2.6481975E-2,-2.3677689E-1,-7.387752E-1,-1.1505579E0,-1.1041019E-2,1.7920323E-2,-2.1087408E-1,4.4355784E-2,6.613279E-1,6.440282E-1,1.2935823E-1,2.841371E-1,-7.610716E-2,-3.3841576E-2,-6.5443194E-1,-8.6723983E-1,2.66388E-3,-1.1982402E0,-1.791078E-2,-1.4386849E-2,4.1169324E-3,7.4720913E-1,-9.497542E-2,4.7502685E-1,4.1441556E-2,-8.728783E-2,6.7755395E-1,4.1645437E-1,-4.37003E-1,-1.3494687E-1,2.6098385E-1,6.942646E-2,-5.5867755E-1,-7.8868103E-1,-2.903633E-3,-1.0944972E0,-1.6429065E-1,-8.371323E-1,-1.2746557E0,-6.2788115E-3,2.392377E-2,-1.7431317E-2,7.111842E-3,2.1935442E-2,-3.3771414E-3,-1.2033692E-2,9.473905E-3,2.7730057E-2,5.1033786E-3,1.5295851E-2,-2.479792E-2,-5.946712E-4,-2.140325E-2,8.8346135E-3,-6.3095056E-3,-5.513294E-3,1.8088184E-2,-5.856873E-3,1.1576659E-2,-2.6152095E-2,-2.6652506E-3,-1.8134166E-2,-4.1514628E-2,-1.6228141E-2,-3.802036E-2,1.6469056E-2,-1.8084208E-2,-1.4304006E-2,-3.8086966E-2,-3.0801509E-2,-4.321136E-2],"categories":[],"categories_nodes":[],"categories_segments":[],"categories_sizes":[],"default_left":[0,0,0,0,0,0,0,0,0,0,0,0,0,0,0,0,0,0,0,0,0,0,0,0,0,0,0,0,0,0,0,0,0,0,0,0,0,0,0,0,0,0,0,0,0,0,0,0,0,0,0,0,0,0,0,0,0,0,0,0,0,0,0,0,0,0,0,0,0,0,0,0,0,0,0,0,0,0,0,0,0],"id":16,"left_children":[1,3,5,7,9,11,13,15,17,19,21,23,25,27,-1,-1,29,-1,31,33,35,37,39,41,43,45,-1,47,-1,-1,-1,49,51,53,-1,55,57,59,61,63,65,67,69,71,-1,73,75,77,79,-1,-1,-1,-1,-1,-1,-1,-1,-1,-1,-1,-1,-1,-1,-1,-1,-1,-1,-1,-1,-1,-1,-1,-1,-1,-1,-1,-1,-1,-1,-1,-1],"loss_changes":[1.6915787E2,4.9099007E1,2.7432861E1,7.88826E0,1.2882959E1,1.0044804E1,2.3625183E0,2.885563E0,1.4628075E1,7.3144035E0,9.047243E0,9.816784E0,6.8350563E0,1.2663574E0,0E0,0E0,1.2605622E0,0E0,9.651794E0,7.0086937E0,6.3264694E0,9.483686E0,4.8655005E0,4.4174542E0,2.6806545E0,8.41494E0,0E0,7.701416E-1,0E0,0E0,0E0,6.56028E0,2.7072787E0,8.104393E0,0E0,4.970405E0,1.6182089E0,1.002882E1,1.6986222E0,6.811388E0,5.684806E0,5.746279E0,1.7980461E0,2.2919903E0,0E0,3.053547E0,4.90931E0,1.7297993E0,7.0383453E-1,0E0,0E0,0E0,0E0,0E0,0E0,0E0,0E0,0E0,0E0,0E0,0E0,0E0,0E0,0E0,0E0,0E0,0E0,0E0,0E0,0E0,0E0,0E0,0E0,0E0,0E0,0E0,0E0,0E0,0E0,0E0,0E0],"parents":[2147483647,0,0,1,1,2,2,3,3,4,4,5,5,6,6,7,7,8,8,9,9,10,10,11,11,12,12,13,13,16,16,18,18,19,19,20,20,21,21,22,22,23,23,24,24,25,25,27,27,31,31,32,32,33,33,35,35,36,36,37,37,38,38,39,39,40,40,41,41,42,42,43,43,45,45,46,46,47,47,48,48],"right_children":[2,4,6,8,10,12,14,16,18,20,22,24,26,28,-1,-1,30,-1,32,34,36,38,40,42,44,46,-1,48,-1,-1,-1,50,52,54,-1,56,58,60,62,64,66,68,70,72,-1,74,76,78,80,-1,-1,-1,-1,-1,-1,-1,-1,-1,-1,-1,-1,-1,-1,-1,-1,-1,-1,-1,-1,-1,-1,-1,-1,-1,-1,-1,-1,-1,-1,-1,-1],"split_conditions":[-2.3497745E-1,-9.037068E-1,3.564311E-1,-9.388E-1,5.0074375E-1,-8.3533746E-1,2.623379E-1,-2.4426536E-1,-9.368638E-1,-1.20074175E-1,-8.748326E-1,1.3178183E-1,-5.6486238E-2,-4.2557114E-1,-1.1041019E-2,1.7920323E-2,-1.1137109E-1,4.4355784E-2,-7.435557E-2,-1.23131126E-1,6.5360475E-1,-5.2136767E-1,-4.6707723E-1,-1.0137873E-1,-4.5841143E-1,2.0544249E-1,2.66388E-3,-4.813328E-1,-1.791078E-2,-1.4386849E-2,4.1169324E-3,-1.23522356E-1,-2.4374746E-1,-1.09833196E-1,4.1441556E-2,-4.7315955E-1,-4.7458112E-1,-9.2134096E-2,-6.900953E-1,-1.1464455E-1,-1.2997952E-1,4.426852E-3,4.2360992E0,-5.3509593E-2,-2.903633E-3,-2.4351582E-1,-4.7957072E-1,-2.3285331E-1,-1.13248214E-1,-6.2788115E-3,2.392377E-2,-1.7431317E-2,7.111842E-3,2.1935442E-2,-3.3771414E-3,-1.2033692E-2,9.473905E-3,2.7730057E-2,5.1033786E-3,1.5295851E-2,-2.479792E-2,-5.946712E-4,-2.140325E-2,8.8346135E-3,-6.3095056E-3,-5.513294E-3,1.8088184E-2,-5.856873E-3,1.1576659E-2,-2.6152095E-2,-2.6652506E-3,-1.8134166E-2,-4.1514628E-2,-1.6228141E-2,-3.802036E-2,1.6469056E-2,-1.8084208E-2,-1.4304006E-2,-3.8086966E-2,-3.0801509E-2,-4.321136E-2],"split_indices":[24,19,24,19,21,19,4,10,19,9,19,24,9,6,0,0,8,0,9,9,3,24,5,8,6,24,0,5,0,0,0,8,10,8,0,6,5,8,1,8,9,3,20,9,0,10,5,10,8,0,0,0,0,0,0,0,0,0,0,0,0,0,0,0,0,0,0,0,0,0,0,0,0,0,0,0,0,0,0,0,0],"split_type":[0,0,0,0,0,0,0,0,0,0,0,0,0,0,0,0,0,0,0,0,0,0,0,0,0,0,0,0,0,0,0,0,0,0,0,0,0,0,0,0,0,0,0,0,0,0,0,0,0,0,0,0,0,0,0,0,0,0,0,0,0,0,0,0,0,0,0,0,0,0,0,0,0,0,0,0,0,0,0,0,0],"sum_hessian":[9.063863E2,6.4207745E2,2.6430884E2,1.891342E2,4.5294327E2,1.7773102E2,8.6577805E1,1.7232857E1,1.7190135E2,1.13272705E2,3.3967056E2,1.1589612E2,6.1834908E1,8.088572E1,5.6920877E0,5.8250794E0,1.1407777E1,2.6399757E1,1.4550159E2,6.199863E1,5.1274075E1,9.650385E1,2.431667E2,7.888633E1,3.700979E1,5.358912E1,8.245786E0,7.3231995E1,7.6537223E0,6.3873153E0,5.0204616E0,1.307937E2,1.4707887E1,5.188622E1,1.011241E1,3.7222256E1,1.4051819E1,8.201638E1,1.44874735E1,2.0779254E2,3.537415E1,6.648229E1,1.2404039E1,2.9350271E1,7.659516E0,3.996841E1,1.3620709E1,1.5106862E1,5.8125134E1,6.270978E0,1.2452272E2,5.787217E0,8.92067E0,3.6082447E1,1.5803773E1,2.107025E1,1.6152004E1,8.768737E0,5.283082E0,7.6907555E1,5.1088295E0,6.345208E0,8.142265E0,3.0392399E1,1.7740015E2,1.5449756E1,1.9924395E1,3.6241127E1,3.0241161E1,6.802909E0,5.601131E0,2.408053E1,5.2697425E0,1.0630749E1,2.9337662E1,5.0031023E0,8.617607E0,9.513463E0,5.5933995E0,2.641073E1,3.1714403E1],"tree_param":{"num_deleted":"0","num_feature":"25","num_nodes":"81","size_leaf_vector":"1"}},{"base_weights":[2.6394825E-2,2.191243E-1,-8.8267684E-1,4.8741534E-1,-4.4996765E-2,-1.1995777E0,-6.752801E-1,6.4729434E-1,2.6405867E-2,6.4199604E-2,-3.5344094E-1,-6.752013E-1,-3.979644E-2,8.206634E-3,-7.8500307E-1,6.933656E-1,-1.7440799E-1,4.7174823E-1,-2.206245E-1,4.724293E-1,-7.01456E-2,3.1783745E-2,-5.732003E-1,-8.5695053E-4,-3.3835705E-2,-1.0750489E0,-4.920537E-1,6.005738E-1,1.065124E0,-1.9321762E-2,1.7784718E-2,-0E0,9.341055E-1,-2.721214E-2,-6.799574E-1,2.4971323E-1,8.4934026E-1,2.6977125E-1,-1.420452E-1,-3.86281E-1,4.8841885E-1,-8.6848533E-1,-1.3909622E-1,-8.067995E-1,-4.0698204E-2,1.2004976E-2,-6.4959586E-1,2.9919777E-2,1.3678276E-2,3.5090465E-2,1.5626788E-2,-1.0649258E-2,1.1368129E-2,1.320176E-2,4.371245E-2,-2.761052E-2,3.5605356E-3,-6.2956046E-3,-3.8815167E-2,1.1201634E-2,-1.3356883E-2,3.8015876E-2,1.07152015E-2,-8.7560475E-4,2.3768084E-2,2.091366E-2,-5.6816414E-3,3.996916E-3,-2.473006E-2,-4.5122025E-3,2.3983868E-2,-2.9511388E-2,-3.5516263E-3,-1.616795E-2,1.336256E-2,-4.1851643E-3,-3.0977024E-2,-1.2034679E-2,-3.1278044E-2],"categories":[],"categories_nodes":[],"categories_segments":[],"categories_sizes":[],"default_left":[0,0,0,0,0,0,0,0,0,0,0,0,0,0,0,0,0,0,0,0,0,0,0,0,0,0,0,0,0,0,0,0,0,0,0,0,0,0,0,0,0,0,0,0,0,0,0,0,0,0,0,0,0,0,0,0,0,0,0,0,0,0,0,0,0,0,0,0,0,0,0,0,0,0,0,0,0,0,0],"id":17,"left_children":[1,3,5,7,9,11,13,15,17,19,21,23,-1,-1,25,27,29,31,33,35,37,39,41,-1,-1,43,45,47,49,-1,-1,51,53,55,57,59,61,63,65,67,69,71,73,75,-1,-1,77,-1,-1,-1,-1,-1,-1,-1,-1,-1,-1,-1,-1,-1,-1,-1,-1,-1,-1,-1,-1,-1,-1,-1,-1,-1,-1,-1,-1,-1,-1,-1,-1],"loss_changes":[1.5788559E2,5.277359E1,9.361397E0,2.7132477E1,1.2700374E1,2.9567413E0,1.0441925E1,1.0544678E1,1.0722291E1,1.5317862E1,8.418114E0,3.9662266E0,0E0,0E0,6.78862E0,8.153976E0,5.8745985E0,7.592816E0,5.460783E0,5.4818153E0,5.1536093E0,7.184488E0,7.852911E0,0E0,0E0,1.9509163E0,6.719719E0,1.1471611E1,2.088192E0,0E0,0E0,2.5875108E0,3.7118921E0,6.073448E0,4.8638296E0,4.0302973E0,4.5462055E0,5.837699E0,6.9975224E0,4.627344E0,3.770812E0,2.9853191E0,6.519608E0,3.469698E0,0E0,0E0,3.2829018E0,0E0,0E0,0E0,0E0,0E0,0E0,0E0,0E0,0E0,0E0,0E0,0E0,0E0,0E0,0E0,0E0,0E0,0E0,0E0,0E0,0E0,0E0,0E0,0E0,0E0,0E0,0E0,0E0,0E0,0E0,0E0,0E0],"parents":[2147483647,0,0,1,1,2,2,3,3,4,4,5,5,6,6,7,7,8,8,9,9,10,10,11,11,14,14,15,15,16,16,17,17,18,18,19,19,20,20,21,21,22,22,25,25,26,26,27,27,28,28,31,31,32,32,33,33,34,34,35,35,36,36,37,37,38,38,39,39,40,40,41,41,42,42,43,43,46,46],"right_children":[2,4,6,8,10,12,14,16,18,20,22,24,-1,-1,26,28,30,32,34,36,38,40,42,-1,-1,44,46,48,50,-1,-1,52,54,56,58,60,62,64,66,68,70,72,74,76,-1,-1,78,-1,-1,-1,-1,-1,-1,-1,-1,-1,-1,-1,-1,-1,-1,-1,-1,-1,-1,-1,-1,-1,-1,-1,-1,-1,-1,-1,-1,-1,-1,-1,-1],"split_conditions":[1.0958264E-1,-8.7663513E-1,2.861212E-2,-5.3829235E-1,-5.516494E-1,5.0074375E-1,4.6695028E-2,-1.6637482E-2,-9.2106515E-1,5.0074375E-1,-8.400347E-1,4.418869E-1,-3.979644E-2,8.206634E-3,-1.2997952E-1,1.3986752E0,-5.379695E-1,-4.7446996E-1,4.2360992E0,6.1778456E-1,-1.1452045E-1,-4.9943554E-1,7.1325225E-1,-8.5695053E-4,-3.3835705E-2,-8.4966904E-1,-2.5291934E0,-4.8173645E-1,4.2360992E0,-1.9321762E-2,1.7784718E-2,-2.0829303E0,-6.7798233E-1,-9.1403633E-1,-6.829482E-1,3.3163503E-1,-8.8561475E-1,-1.16205886E-1,-3.7432365E0,7.695978E-2,-2.1733727E0,-1.00396305E-1,-6.851074E-1,7.388491E-2,-4.0698204E-2,1.2004976E-2,4.1098043E-1,2.9919777E-2,1.3678276E-2,3.5090465E-2,1.5626788E-2,-1.0649258E-2,1.1368129E-2,1.320176E-2,4.371245E-2,-2.761052E-2,3.5605356E-3,-6.2956046E-3,-3.8815167E-2,1.1201634E-2,-1.3356883E-2,3.8015876E-2,1.07152015E-2,-8.7560475E-4,2.3768084E-2,2.091366E-2,-5.6816414E-3,3.996916E-3,-2.473006E-2,-4.5122025E-3,2.3983868E-2,-2.9511388E-2,-3.5516263E-3,-1.616795E-2,1.336256E-2,-4.1851643E-3,-3.0977024E-2,-1.2034679E-2,-3.1278044E-2],"split_indices":[24,19,4,23,23,21,4,9,19,21,19,24,0,0,9,3,3,6,20,3,8,23,2,0,0,19,2,6,20,0,0,2,1,19,1,3,7,8,2,4,2,8,1,4,0,0,24,0,0,0,0,0,0,0,0,0,0,0,0,0,0,0,0,0,0,0,0,0,0,0,0,0,0,0,0,0,0,0,0],"split_type":[0,0,0,0,0,0,0,0,0,0,0,0,0,0,0,0,0,0,0,0,0,0,0,0,0,0,0,0,0,0,0,0,0,0,0,0,0,0,0,0,0,0,0,0,0,0,0,0,0,0,0,0,0,0,0,0,0,0,0,0,0,0,0,0,0,0,0,0,0,0,0,0,0,0,0,0,0,0,0],"sum_hessian":[8.9942303E2,7.42811E2,1.5661209E2,3.6826495E2,3.74546E2,5.9868015E1,9.674408E1,2.7297552E2,9.5289444E1,2.769625E2,9.758348E1,1.305547E1,4.6812546E1,9.778608E0,8.696547E1,2.5874603E2,1.4229497E1,3.3818012E1,6.1471436E1,6.813898E1,2.0882353E2,3.5592434E1,6.1991043E1,5.904576E0,7.150895E0,4.218625E1,4.4779224E1,2.09371E2,4.9375015E1,9.006915E0,5.222582E0,1.7235771E1,1.6582241E1,4.415566E1,1.7315777E1,4.4042297E1,2.4096682E1,3.5735474E1,1.7308806E2,1.8547058E1,1.7045378E1,3.6162014E1,2.5829027E1,2.3765104E1,1.8421144E1,6.3938255E0,3.83854E1,5.4173973E1,1.5519704E2,4.029964E1,9.075375E0,8.92964E0,8.306132E0,9.572204E0,7.0100374E0,5.551024E0,3.8604633E1,1.0658419E1,6.6573577E0,3.790346E1,6.138837E0,1.2070647E1,1.2026035E1,2.3208822E1,1.2526651E1,8.397764E0,1.6469029E2,8.698559E0,9.8485E0,5.6455035E0,1.1399874E1,3.0961105E1,5.200909E0,1.5485376E1,1.0343652E1,6.5288577E0,1.7236246E1,2.4912231E1,1.34731655E1],"tree_param":{"num_deleted":"0","num_feature":"25","num_nodes":"79","size_leaf_vector":"1"}},{"base_weights":[-1.558418E-2,2.2099385E-1,-7.350831E-1,3.119792E-1,-1.7313214E-1,-5.411543E-1,-1.1985179E0,6.057601E-1,1.8471669E-1,-2.555771E-1,2.2055801E-2,-1.1102434E-1,-6.530986E-1,-1.0373617E0,-4.287645E-2,8.3502936E-1,3.742466E-1,3.0495547E-2,1.5001708E-1,-4.1703787E-1,2.5805897E-1,2.2655217E-1,-6.028179E-1,-7.371635E-1,-5.223476E-2,-3.8203485E-2,-6.201235E-1,1.0827395E0,3.962337E-1,7.7111554E-1,1.0403486E-1,-4.8294876E-2,3.4965E-1,-9.1045016E-1,-2.3488067E-1,4.9150336E-1,-1.7076721E-2,-2.0215096E-2,6.271402E-1,-2.7550591E-2,-2.839864E-3,9.785577E-4,-7.9269457E-1,-2.2470038E-2,1.9327583E-2,-3.1296898E-2,-2.3774866E-3,1.189278E-2,4.3256167E-2,-2.0272208E-3,2.3147931E-2,5.901846E-3,2.581333E-2,-1.9138196E-2,8.3347075E-3,1.2955656E-2,-4.30317E-3,3.058145E-3,1.7746488E-2,-5.8528413E-3,-3.5350855E-2,1.663172E-2,-1.2056059E-2,5.8655515E-3,3.0599587E-2,-0E0,2.8648159E-2,-1.6540324E-2,-2.947324E-2],"categories":[],"categories_nodes":[],"categories_segments":[],"categories_sizes":[],"default_left":[0,0,0,0,0,0,0,0,0,0,0,0,0,0,0,0,0,0,0,0,0,0,0,0,0,0,0,0,0,0,0,0,0,0,0,0,0,0,0,0,0,0,0,0,0,0,0,0,0,0,0,0,0,0,0,0,0,0,0,0,0,0,0,0,0,0,0,0,0],"id":18,"left_children":[1,3,5,7,9,11,13,15,17,19,-1,21,23,25,-1,27,29,-1,31,33,35,37,39,41,43,-1,45,47,49,51,53,55,57,59,61,63,-1,-1,65,-1,-1,-1,67,-1,-1,-1,-1,-1,-1,-1,-1,-1,-1,-1,-1,-1,-1,-1,-1,-1,-1,-1,-1,-1,-1,-1,-1,-1,-1],"loss_changes":[1.5451912E2,2.4555305E1,1.9367546E1,2.0572254E1,9.763838E0,7.5721016E0,6.9841766E-1,8.440441E0,1.09635935E1,9.964371E0,0E0,5.902425E0,6.2898445E0,3.1922417E0,0E0,8.441345E0,8.970424E0,0E0,1.4888205E1,7.83368E0,5.8435593E0,8.016106E0,2.126718E0,4.8491974E0,8.641504E0,0E0,3.7880573E0,1.213752E1,5.634515E0,1.4803619E0,6.846739E0,8.652999E0,1.1086937E1,4.2305775E0,9.146354E0,3.2972836E0,0E0,0E0,3.0400548E0,0E0,0E0,0E0,4.0560226E0,0E0,0E0,0E0,0E0,0E0,0E0,0E0,0E0,0E0,0E0,0E0,0E0,0E0,0E0,0E0,0E0,0E0,0E0,0E0,0E0,0E0,0E0,0E0,0E0,0E0,0E0],"parents":[2147483647,0,0,1,1,2,2,3,3,4,4,5,5,6,6,7,7,8,8,9,9,11,11,12,12,13,13,15,15,16,16,18,18,19,19,20,20,21,21,22,22,23,23,24,24,26,26,27,27,28,28,29,29,30,30,31,31,32,32,33,33,34,34,35,35,38,38,42,42],"right_children":[2,4,6,8,10,12,14,16,18,20,-1,22,24,26,-1,28,30,-1,32,34,36,38,40,42,44,-1,46,48,50,52,54,56,58,60,62,64,-1,-1,66,-1,-1,-1,68,-1,-1,-1,-1,-1,-1,-1,-1,-1,-1,-1,-1,-1,-1,-1,-1,-1,-1,-1,-1,-1,-1,-1,-1,-1,-1],"split_conditions":[-8.909478E-2,-5.3829235E-1,4.482844E-1,5.0074375E-1,-4.0162456E-1,5.0074375E-1,7.261093E-1,-1.13437414E-1,-4.3428013E-1,-4.6980652E-1,2.2055801E-2,-4.769345E-1,-6.278426E-1,-4.55964E-1,-4.287645E-2,-1.014735E0,-2.4241383E-1,3.0495547E-2,-4.285205E-1,-2.07536E0,-6.4695996E-1,-4.8106563E-1,-4.297276E-1,-4.3444082E-1,-4.257663E-1,-3.8203485E-2,-1.13437414E-1,-1.5284653E0,9.6448535E-1,-4.6317628E-1,-1.1213627E-1,-2.5591908E0,-5.736521E-1,-4.457934E0,-6.910953E-1,-5.0248414E-1,-1.7076721E-2,-2.0215096E-2,-4.845711E-1,-2.7550591E-2,-2.839864E-3,9.785577E-4,1.3178183E-1,-2.2470038E-2,1.9327583E-2,-3.1296898E-2,-2.3774866E-3,1.189278E-2,4.3256167E-2,-2.0272208E-3,2.3147931E-2,5.901846E-3,2.581333E-2,-1.9138196E-2,8.3347075E-3,1.2955656E-2,-4.30317E-3,3.058145E-3,1.7746488E-2,-5.8528413E-3,-3.5350855E-2,1.663172E-2,-1.2056059E-2,5.8655515E-3,3.0599587E-2,-0E0,2.8648159E-2,-1.6540324E-2,-2.947324E-2],"split_indices":[24,23,24,21,0,21,24,8,0,5,0,6,1,23,0,7,10,0,0,7,1,5,0,0,0,0,8,7,7,3,8,7,7,7,1,23,0,0,23,0,0,0,24,0,0,0,0,0,0,0,0,0,0,0,0,0,0,0,0,0,0,0,0,0,0,0,0,0,0],"split_type":[0,0,0,0,0,0,0,0,0,0,0,0,0,0,0,0,0,0,0,0,0,0,0,0,0,0,0,0,0,0,0,0,0,0,0,0,0,0,0,0,0,0,0,0,0,0,0,0,0,0,0,0,0,0,0,0,0,0,0,0,0,0,0,0,0,0,0,0,0],"sum_hessian":[9.0551746E2,6.81867E2,2.2365044E2,5.543545E2,1.2751254E2,1.5935165E2,6.429877E1,1.6618253E2,3.8817197E2,1.17661606E2,9.850938E0,3.350367E1,1.2584799E2,4.1346073E1,2.2952696E1,8.196918E1,8.421335E1,1.4296109E1,3.7387585E2,8.9812065E1,2.784954E1,2.0065989E1,1.3437681E1,1.1005701E2,1.5790983E1,2.4941528E1,1.6404545E1,5.1308777E1,3.0660398E1,3.3211174E1,5.1002174E1,1.8768747E2,1.8618839E2,2.2990414E1,6.682165E1,2.2131258E1,5.718283E0,5.891686E0,1.4174302E1,7.6706414E0,5.76704E0,7.3117666E0,1.0274524E2,7.927993E0,7.86299E0,8.579465E0,7.82508E0,1.844401E1,3.2864765E1,1.3962101E1,1.6698298E1,5.0515165E0,2.8159657E1,9.062877E0,4.1939297E1,3.0281282E1,1.5740617E2,9.289558E1,9.3292816E1,6.836807E0,1.6153606E1,1.1159115E1,5.5662533E1,1.5185543E1,6.945715E0,5.295912E0,8.87839E0,4.7174202E1,5.557104E1],"tree_param":{"num_deleted":"0","num_feature":"25","num_nodes":"69","size_leaf_vector":"1"}},{"base_weights":[2.235239E-2,2.6694724E-1,-6.0213375E-1,5.607526E-1,7.2786056E-2,-3.9124614E-1,-9.624201E-1,4.175941E-1,8.6534625E-1,2.7808595E-1,-6.354524E-2,2.0082412E-2,-4.3373924E-1,-1.0194899E0,-0E0,4.8920316E-1,-1.3716158E-1,4.4678947E-1,9.827713E-1,3.5875574E-1,-3.063174E-1,-1.5828338E-1,3.1019303E-1,2.436867E-1,-5.08077E-1,-1.0728438E0,-8.56236E-3,5.389629E-1,-1.5237881E-2,3.7947044E-1,-3.4947224E-2,7.2939885E-1,-6.302307E-3,1.0377047E0,8.4501775E-3,8.074687E-2,5.631974E-1,-2.8779196E-2,1.0591651E-2,-7.881035E-2,-6.552628E-1,7.622077E-1,-5.2834302E-2,-1.55836465E-2,2.233424E-2,-1.1128856E0,-4.3367133E-1,-1.121108E0,-1.3957028E-2,1.9871771E-2,6.3553816E-3,-4.165895E-3,2.1252811E-2,2.892803E-2,6.993971E-3,3.351886E-2,1.49933E-2,2.3187658E-2,-1.8106129E-3,1.0235913E-2,2.892818E-2,2.1193977E-2,-3.8887488E-3,-3.506609E-2,-6.980047E-3,4.8232405E-3,3.5544705E-2,-2.1582684E-2,5.9250183E-3,-4.3240678E-2,-2.2837961E-2,-8.80595E-3,-2.1516256E-2,-1.7568013E-2,-3.4893602E-2],"categories":[],"categories_nodes":[],"categories_segments":[],"categories_sizes":[],"default_left":[0,0,0,0,0,0,0,0,0,0,0,0,0,0,0,0,0,0,0,0,0,0,0,0,0,0,0,0,0,0,0,0,0,0,0,0,0,0,0,0,0,0,0,0,0,0,0,0,0,0,0,0,0,0,0,0,0,0,0,0,0,0,0,0,0,0,0,0,0,0,0,0,0,0,0],"id":19,"left_children":[1,3,5,7,9,11,13,15,17,19,21,-1,23,25,-1,27,29,31,33,35,37,39,41,43,45,47,-1,49,-1,51,-1,53,-1,55,-1,57,59,-1,-1,61,63,65,67,-1,-1,69,71,73,-1,-1,-1,-1,-1,-1,-1,-1,-1,-1,-1,-1,-1,-1,-1,-1,-1,-1,-1,-1,-1,-1,-1,-1,-1,-1,-1],"loss_changes":[1.3754887E2,3.682012E1,1.8741173E1,1.0725433E1,1.0984998E1,7.5546474E0,5.0932693E0,7.138479E0,3.4027977E0,7.495162E0,8.373636E0,0E0,8.014578E0,2.9854355E0,0E0,8.079102E0,1.1602157E1,3.8775666E0,1.9749374E0,7.7430286E0,8.742295E0,7.3311343E0,7.9476943E0,6.518379E0,5.7160797E0,1.697876E0,0E0,5.842991E0,0E0,2.6410804E0,0E0,1.3061275E0,0E0,1.7315369E0,0E0,5.970418E0,6.5961285E0,0E0,0E0,6.580652E0,5.1695337E0,5.129182E0,4.7494407E0,0E0,0E0,3.780098E-1,4.754656E0,8.1476593E-1,0E0,0E0,0E0,0E0,0E0,0E0,0E0,0E0,0E0,0E0,0E0,0E0,0E0,0E0,0E0,0E0,0E0,0E0,0E0,0E0,0E0,0E0,0E0,0E0,0E0,0E0,0E0],"parents":[2147483647,0,0,1,1,2,2,3,3,4,4,5,5,6,6,7,7,8,8,9,9,10,10,12,12,13,13,15,15,16,16,17,17,18,18,19,19,20,20,21,21,22,22,23,23,24,24,25,25,27,27,29,29,31,31,33,33,35,35,36,36,39,39,40,40,41,41,42,42,45,45,46,46,47,47],"right_children":[2,4,6,8,10,12,14,16,18,20,22,-1,24,26,-1,28,30,32,34,36,38,40,42,44,46,48,-1,50,-1,52,-1,54,-1,56,-1,58,60,-1,-1,62,64,66,68,-1,-1,70,72,74,-1,-1,-1,-1,-1,-1,-1,-1,-1,-1,-1,-1,-1,-1,-1,-1,-1,-1,-1,-1,-1,-1,-1,-1,-1,-1,-1],"split_conditions":[-1.947929E-1,-8.89165E-1,3.2290268E-1,1.687219E-1,-1.13437414E-1,-4.346809E-1,-4.0162456E-1,1.4518464E-1,-1.1355452E-1,-4.537567E-1,-4.251238E-1,2.0082412E-2,-2.4903664E-1,2.623379E-1,-0E0,-2.5765988E-1,-9.075373E-1,-6.5528625E-1,-5.2360505E-1,1.04182415E-1,-8.4966904E-1,-4.631978E-1,-4.7781885E-1,-2.649854E-1,-5.060313E-1,-4.2557114E-1,-8.56236E-3,-1.0487889E-1,